// Neural Network File Format by Kyle Julian, Stanford 2016
11,784,10,784,
784,10,10,10,10,10,10,10,10,10,10,10,
0,
-6.55e4,-6.55e4,-6.55e4,-6.55e4,-6.55e4,-6.55e4,-6.55e4,-6.55e4,-6.55e4,-6.55e4,-6.55e4,-6.55e4,-6.55e4,-6.55e4,-6.55e4,-6.55e4,-6.55e4,-6.55e4,-6.55e4,-6.55e4,-6.55e4,-6.55e4,-6.55e4,-6.55e4,-6.55e4,-6.55e4,-6.55e4,-6.55e4,-6.55e4,-6.55e4,-6.55e4,-6.55e4,-6.55e4,-6.55e4,-6.55e4,-6.55e4,-6.55e4,-6.55e4,-6.55e4,-6.55e4,-6.55e4,-6.55e4,-6.55e4,-6.55e4,-6.55e4,-6.55e4,-6.55e4,-6.55e4,-6.55e4,-6.55e4,-6.55e4,-6.55e4,-6.55e4,-6.55e4,-6.55e4,-6.55e4,-6.55e4,-6.55e4,-6.55e4,-6.55e4,-6.55e4,-6.55e4,-6.55e4,-6.55e4,-6.55e4,-6.55e4,-6.55e4,-6.55e4,-6.55e4,-6.55e4,-6.55e4,-6.55e4,-6.55e4,-6.55e4,-6.55e4,-6.55e4,-6.55e4,-6.55e4,-6.55e4,-6.55e4,-6.55e4,-6.55e4,-6.55e4,-6.55e4,-6.55e4,-6.55e4,-6.55e4,-6.55e4,-6.55e4,-6.55e4,-6.55e4,-6.55e4,-6.55e4,-6.55e4,-6.55e4,-6.55e4,-6.55e4,-6.55e4,-6.55e4,-6.55e4,-6.55e4,-6.55e4,-6.55e4,-6.55e4,-6.55e4,-6.55e4,-6.55e4,-6.55e4,-6.55e4,-6.55e4,-6.55e4,-6.55e4,-6.55e4,-6.55e4,-6.55e4,-6.55e4,-6.55e4,-6.55e4,-6.55e4,-6.55e4,-6.55e4,-6.55e4,-6.55e4,-6.55e4,-6.55e4,-6.55e4,-6.55e4,-6.55e4,-6.55e4,-6.55e4,-6.55e4,-6.55e4,-6.55e4,-6.55e4,-6.55e4,-6.55e4,-6.55e4,-6.55e4,-6.55e4,-6.55e4,-6.55e4,-6.55e4,-6.55e4,-6.55e4,-6.55e4,-6.55e4,-6.55e4,-6.55e4,-6.55e4,-6.55e4,-6.55e4,-6.55e4,-6.55e4,-6.55e4,-6.55e4,-6.55e4,-6.55e4,-6.55e4,-6.55e4,-6.55e4,-6.55e4,-6.55e4,-6.55e4,-6.55e4,-6.55e4,-6.55e4,-6.55e4,-6.55e4,-6.55e4,-6.55e4,-6.55e4,-6.55e4,-6.55e4,-6.55e4,-6.55e4,-6.55e4,-6.55e4,-6.55e4,-6.55e4,-6.55e4,-6.55e4,-6.55e4,-6.55e4,-6.55e4,-6.55e4,-6.55e4,-6.55e4,-6.55e4,-6.55e4,-6.55e4,-6.55e4,-6.55e4,-6.55e4,-6.55e4,-6.55e4,-6.55e4,-6.55e4,-6.55e4,-6.55e4,-6.55e4,-6.55e4,-6.55e4,-6.55e4,-6.55e4,-6.55e4,-6.55e4,-6.55e4,-6.55e4,-6.55e4,-6.55e4,-6.55e4,-6.55e4,-6.55e4,-6.55e4,-6.55e4,-6.55e4,-6.55e4,-6.55e4,-6.55e4,-6.55e4,-6.55e4,-6.55e4,-6.55e4,-6.55e4,-6.55e4,-6.55e4,-6.55e4,-6.55e4,-6.55e4,-6.55e4,-6.55e4,-6.55e4,-6.55e4,-6.55e4,-6.55e4,-6.55e4,-6.55e4,-6.55e4,-6.55e4,-6.55e4,-6.55e4,-6.55e4,-6.55e4,-6.55e4,-6.55e4,-6.55e4,-6.55e4,-6.55e4,-6.55e4,-6.55e4,-6.55e4,-6.55e4,-6.55e4,-6.55e4,-6.55e4,-6.55e4,-6.55e4,-6.55e4,-6.55e4,-6.55e4,-6.55e4,-6.55e4,-6.55e4,-6.55e4,-6.55e4,-6.55e4,-6.55e4,-6.55e4,-6.55e4,-6.55e4,-6.55e4,-6.55e4,-6.55e4,-6.55e4,-6.55e4,-6.55e4,-6.55e4,-6.55e4,-6.55e4,-6.55e4,-6.55e4,-6.55e4,-6.55e4,-6.55e4,-6.55e4,-6.55e4,-6.55e4,-6.55e4,-6.55e4,-6.55e4,-6.55e4,-6.55e4,-6.55e4,-6.55e4,-6.55e4,-6.55e4,-6.55e4,-6.55e4,-6.55e4,-6.55e4,-6.55e4,-6.55e4,-6.55e4,-6.55e4,-6.55e4,-6.55e4,-6.55e4,-6.55e4,-6.55e4,-6.55e4,-6.55e4,-6.55e4,-6.55e4,-6.55e4,-6.55e4,-6.55e4,-6.55e4,-6.55e4,-6.55e4,-6.55e4,-6.55e4,-6.55e4,-6.55e4,-6.55e4,-6.55e4,-6.55e4,-6.55e4,-6.55e4,-6.55e4,-6.55e4,-6.55e4,-6.55e4,-6.55e4,-6.55e4,-6.55e4,-6.55e4,-6.55e4,-6.55e4,-6.55e4,-6.55e4,-6.55e4,-6.55e4,-6.55e4,-6.55e4,-6.55e4,-6.55e4,-6.55e4,-6.55e4,-6.55e4,-6.55e4,-6.55e4,-6.55e4,-6.55e4,-6.55e4,-6.55e4,-6.55e4,-6.55e4,-6.55e4,-6.55e4,-6.55e4,-6.55e4,-6.55e4,-6.55e4,-6.55e4,-6.55e4,-6.55e4,-6.55e4,-6.55e4,-6.55e4,-6.55e4,-6.55e4,-6.55e4,-6.55e4,-6.55e4,-6.55e4,-6.55e4,-6.55e4,-6.55e4,-6.55e4,-6.55e4,-6.55e4,-6.55e4,-6.55e4,-6.55e4,-6.55e4,-6.55e4,-6.55e4,-6.55e4,-6.55e4,-6.55e4,-6.55e4,-6.55e4,-6.55e4,-6.55e4,-6.55e4,-6.55e4,-6.55e4,-6.55e4,-6.55e4,-6.55e4,-6.55e4,-6.55e4,-6.55e4,-6.55e4,-6.55e4,-6.55e4,-6.55e4,-6.55e4,-6.55e4,-6.55e4,-6.55e4,-6.55e4,-6.55e4,-6.55e4,-6.55e4,-6.55e4,-6.55e4,-6.55e4,-6.55e4,-6.55e4,-6.55e4,-6.55e4,-6.55e4,-6.55e4,-6.55e4,-6.55e4,-6.55e4,-6.55e4,-6.55e4,-6.55e4,-6.55e4,-6.55e4,-6.55e4,-6.55e4,-6.55e4,-6.55e4,-6.55e4,-6.55e4,-6.55e4,-6.55e4,-6.55e4,-6.55e4,-6.55e4,-6.55e4,-6.55e4,-6.55e4,-6.55e4,-6.55e4,-6.55e4,-6.55e4,-6.55e4,-6.55e4,-6.55e4,-6.55e4,-6.55e4,-6.55e4,-6.55e4,-6.55e4,-6.55e4,-6.55e4,-6.55e4,-6.55e4,-6.55e4,-6.55e4,-6.55e4,-6.55e4,-6.55e4,-6.55e4,-6.55e4,-6.55e4,-6.55e4,-6.55e4,-6.55e4,-6.55e4,-6.55e4,-6.55e4,-6.55e4,-6.55e4,-6.55e4,-6.55e4,-6.55e4,-6.55e4,-6.55e4,-6.55e4,-6.55e4,-6.55e4,-6.55e4,-6.55e4,-6.55e4,-6.55e4,-6.55e4,-6.55e4,-6.55e4,-6.55e4,-6.55e4,-6.55e4,-6.55e4,-6.55e4,-6.55e4,-6.55e4,-6.55e4,-6.55e4,-6.55e4,-6.55e4,-6.55e4,-6.55e4,-6.55e4,-6.55e4,-6.55e4,-6.55e4,-6.55e4,-6.55e4,-6.55e4,-6.55e4,-6.55e4,-6.55e4,-6.55e4,-6.55e4,-6.55e4,-6.55e4,-6.55e4,-6.55e4,-6.55e4,-6.55e4,-6.55e4,-6.55e4,-6.55e4,-6.55e4,-6.55e4,-6.55e4,-6.55e4,-6.55e4,-6.55e4,-6.55e4,-6.55e4,-6.55e4,-6.55e4,-6.55e4,-6.55e4,-6.55e4,-6.55e4,-6.55e4,-6.55e4,-6.55e4,-6.55e4,-6.55e4,-6.55e4,-6.55e4,-6.55e4,-6.55e4,-6.55e4,-6.55e4,-6.55e4,-6.55e4,-6.55e4,-6.55e4,-6.55e4,-6.55e4,-6.55e4,-6.55e4,-6.55e4,-6.55e4,-6.55e4,-6.55e4,-6.55e4,-6.55e4,-6.55e4,-6.55e4,-6.55e4,-6.55e4,-6.55e4,-6.55e4,-6.55e4,-6.55e4,-6.55e4,-6.55e4,-6.55e4,-6.55e4,-6.55e4,-6.55e4,-6.55e4,-6.55e4,-6.55e4,-6.55e4,-6.55e4,-6.55e4,-6.55e4,-6.55e4,-6.55e4,-6.55e4,-6.55e4,-6.55e4,-6.55e4,-6.55e4,-6.55e4,-6.55e4,-6.55e4,-6.55e4,-6.55e4,-6.55e4,-6.55e4,-6.55e4,-6.55e4,-6.55e4,-6.55e4,-6.55e4,-6.55e4,-6.55e4,-6.55e4,-6.55e4,-6.55e4,-6.55e4,-6.55e4,-6.55e4,-6.55e4,-6.55e4,-6.55e4,-6.55e4,-6.55e4,-6.55e4,-6.55e4,-6.55e4,-6.55e4,-6.55e4,-6.55e4,-6.55e4,-6.55e4,-6.55e4,-6.55e4,-6.55e4,-6.55e4,-6.55e4,-6.55e4,-6.55e4,-6.55e4,-6.55e4,-6.55e4,-6.55e4,-6.55e4,-6.55e4,-6.55e4,-6.55e4,-6.55e4,-6.55e4,-6.55e4,-6.55e4,-6.55e4,-6.55e4,-6.55e4,-6.55e4,-6.55e4,-6.55e4,-6.55e4,-6.55e4,-6.55e4,-6.55e4,-6.55e4,-6.55e4,-6.55e4,-6.55e4,-6.55e4,-6.55e4,-6.55e4,-6.55e4,-6.55e4,-6.55e4,-6.55e4,-6.55e4,-6.55e4,-6.55e4,-6.55e4,-6.55e4,-6.55e4,-6.55e4,-6.55e4,-6.55e4,-6.55e4,-6.55e4,-6.55e4,-6.55e4,-6.55e4,-6.55e4,-6.55e4,-6.55e4,-6.55e4,-6.55e4,-6.55e4,-6.55e4,-6.55e4,-6.55e4,-6.55e4,-6.55e4,-6.55e4,-6.55e4,-6.55e4,-6.55e4,-6.55e4,-6.55e4,-6.55e4,-6.55e4,-6.55e4,-6.55e4,-6.55e4,-6.55e4,-6.55e4,-6.55e4,-6.55e4,-6.55e4,-6.55e4,-6.55e4,-6.55e4,-6.55e4,-6.55e4,-6.55e4,-6.55e4,-6.55e4,-6.55e4,-6.55e4,-6.55e4,-6.55e4,-6.55e4,-6.55e4,-6.55e4,-6.55e4,-6.55e4,-6.55e4,-6.55e4,-6.55e4,-6.55e4,-6.55e4,-6.55e4,-6.55e4,-6.55e4,-6.55e4,-6.55e4,-6.55e4,-6.55e4,-6.55e4,-6.55e4,-6.55e4,-6.55e4,-6.55e4,-6.55e4,-6.55e4,-6.55e4,-6.55e4,-6.55e4,-6.55e4,-6.55e4,-6.55e4,-6.55e4,-6.55e4,-6.55e4,-6.55e4,-6.55e4,-6.55e4,-6.55e4,-6.55e4,-6.55e4,-6.55e4,-6.55e4,-6.55e4,-6.55e4,-6.55e4,-6.55e4,-6.55e4,-6.55e4,-6.55e4,-6.55e4,-6.55e4,-6.55e4,-6.55e4,-6.55e4,-6.55e4,-6.55e4,-6.55e4,-6.55e4,-6.55e4,-6.55e4,-6.55e4,-6.55e4,-6.55e4,-6.55e4,-6.55e4,
6.55e4,6.55e4,6.55e4,6.55e4,6.55e4,6.55e4,6.55e4,6.55e4,6.55e4,6.55e4,6.55e4,6.55e4,6.55e4,6.55e4,6.55e4,6.55e4,6.55e4,6.55e4,6.55e4,6.55e4,6.55e4,6.55e4,6.55e4,6.55e4,6.55e4,6.55e4,6.55e4,6.55e4,6.55e4,6.55e4,6.55e4,6.55e4,6.55e4,6.55e4,6.55e4,6.55e4,6.55e4,6.55e4,6.55e4,6.55e4,6.55e4,6.55e4,6.55e4,6.55e4,6.55e4,6.55e4,6.55e4,6.55e4,6.55e4,6.55e4,6.55e4,6.55e4,6.55e4,6.55e4,6.55e4,6.55e4,6.55e4,6.55e4,6.55e4,6.55e4,6.55e4,6.55e4,6.55e4,6.55e4,6.55e4,6.55e4,6.55e4,6.55e4,6.55e4,6.55e4,6.55e4,6.55e4,6.55e4,6.55e4,6.55e4,6.55e4,6.55e4,6.55e4,6.55e4,6.55e4,6.55e4,6.55e4,6.55e4,6.55e4,6.55e4,6.55e4,6.55e4,6.55e4,6.55e4,6.55e4,6.55e4,6.55e4,6.55e4,6.55e4,6.55e4,6.55e4,6.55e4,6.55e4,6.55e4,6.55e4,6.55e4,6.55e4,6.55e4,6.55e4,6.55e4,6.55e4,6.55e4,6.55e4,6.55e4,6.55e4,6.55e4,6.55e4,6.55e4,6.55e4,6.55e4,6.55e4,6.55e4,6.55e4,6.55e4,6.55e4,6.55e4,6.55e4,6.55e4,6.55e4,6.55e4,6.55e4,6.55e4,6.55e4,6.55e4,6.55e4,6.55e4,6.55e4,6.55e4,6.55e4,6.55e4,6.55e4,6.55e4,6.55e4,6.55e4,6.55e4,6.55e4,6.55e4,6.55e4,6.55e4,6.55e4,6.55e4,6.55e4,6.55e4,6.55e4,6.55e4,6.55e4,6.55e4,6.55e4,6.55e4,6.55e4,6.55e4,6.55e4,6.55e4,6.55e4,6.55e4,6.55e4,6.55e4,6.55e4,6.55e4,6.55e4,6.55e4,6.55e4,6.55e4,6.55e4,6.55e4,6.55e4,6.55e4,6.55e4,6.55e4,6.55e4,6.55e4,6.55e4,6.55e4,6.55e4,6.55e4,6.55e4,6.55e4,6.55e4,6.55e4,6.55e4,6.55e4,6.55e4,6.55e4,6.55e4,6.55e4,6.55e4,6.55e4,6.55e4,6.55e4,6.55e4,6.55e4,6.55e4,6.55e4,6.55e4,6.55e4,6.55e4,6.55e4,6.55e4,6.55e4,6.55e4,6.55e4,6.55e4,6.55e4,6.55e4,6.55e4,6.55e4,6.55e4,6.55e4,6.55e4,6.55e4,6.55e4,6.55e4,6.55e4,6.55e4,6.55e4,6.55e4,6.55e4,6.55e4,6.55e4,6.55e4,6.55e4,6.55e4,6.55e4,6.55e4,6.55e4,6.55e4,6.55e4,6.55e4,6.55e4,6.55e4,6.55e4,6.55e4,6.55e4,6.55e4,6.55e4,6.55e4,6.55e4,6.55e4,6.55e4,6.55e4,6.55e4,6.55e4,6.55e4,6.55e4,6.55e4,6.55e4,6.55e4,6.55e4,6.55e4,6.55e4,6.55e4,6.55e4,6.55e4,6.55e4,6.55e4,6.55e4,6.55e4,6.55e4,6.55e4,6.55e4,6.55e4,6.55e4,6.55e4,6.55e4,6.55e4,6.55e4,6.55e4,6.55e4,6.55e4,6.55e4,6.55e4,6.55e4,6.55e4,6.55e4,6.55e4,6.55e4,6.55e4,6.55e4,6.55e4,6.55e4,6.55e4,6.55e4,6.55e4,6.55e4,6.55e4,6.55e4,6.55e4,6.55e4,6.55e4,6.55e4,6.55e4,6.55e4,6.55e4,6.55e4,6.55e4,6.55e4,6.55e4,6.55e4,6.55e4,6.55e4,6.55e4,6.55e4,6.55e4,6.55e4,6.55e4,6.55e4,6.55e4,6.55e4,6.55e4,6.55e4,6.55e4,6.55e4,6.55e4,6.55e4,6.55e4,6.55e4,6.55e4,6.55e4,6.55e4,6.55e4,6.55e4,6.55e4,6.55e4,6.55e4,6.55e4,6.55e4,6.55e4,6.55e4,6.55e4,6.55e4,6.55e4,6.55e4,6.55e4,6.55e4,6.55e4,6.55e4,6.55e4,6.55e4,6.55e4,6.55e4,6.55e4,6.55e4,6.55e4,6.55e4,6.55e4,6.55e4,6.55e4,6.55e4,6.55e4,6.55e4,6.55e4,6.55e4,6.55e4,6.55e4,6.55e4,6.55e4,6.55e4,6.55e4,6.55e4,6.55e4,6.55e4,6.55e4,6.55e4,6.55e4,6.55e4,6.55e4,6.55e4,6.55e4,6.55e4,6.55e4,6.55e4,6.55e4,6.55e4,6.55e4,6.55e4,6.55e4,6.55e4,6.55e4,6.55e4,6.55e4,6.55e4,6.55e4,6.55e4,6.55e4,6.55e4,6.55e4,6.55e4,6.55e4,6.55e4,6.55e4,6.55e4,6.55e4,6.55e4,6.55e4,6.55e4,6.55e4,6.55e4,6.55e4,6.55e4,6.55e4,6.55e4,6.55e4,6.55e4,6.55e4,6.55e4,6.55e4,6.55e4,6.55e4,6.55e4,6.55e4,6.55e4,6.55e4,6.55e4,6.55e4,6.55e4,6.55e4,6.55e4,6.55e4,6.55e4,6.55e4,6.55e4,6.55e4,6.55e4,6.55e4,6.55e4,6.55e4,6.55e4,6.55e4,6.55e4,6.55e4,6.55e4,6.55e4,6.55e4,6.55e4,6.55e4,6.55e4,6.55e4,6.55e4,6.55e4,6.55e4,6.55e4,6.55e4,6.55e4,6.55e4,6.55e4,6.55e4,6.55e4,6.55e4,6.55e4,6.55e4,6.55e4,6.55e4,6.55e4,6.55e4,6.55e4,6.55e4,6.55e4,6.55e4,6.55e4,6.55e4,6.55e4,6.55e4,6.55e4,6.55e4,6.55e4,6.55e4,6.55e4,6.55e4,6.55e4,6.55e4,6.55e4,6.55e4,6.55e4,6.55e4,6.55e4,6.55e4,6.55e4,6.55e4,6.55e4,6.55e4,6.55e4,6.55e4,6.55e4,6.55e4,6.55e4,6.55e4,6.55e4,6.55e4,6.55e4,6.55e4,6.55e4,6.55e4,6.55e4,6.55e4,6.55e4,6.55e4,6.55e4,6.55e4,6.55e4,6.55e4,6.55e4,6.55e4,6.55e4,6.55e4,6.55e4,6.55e4,6.55e4,6.55e4,6.55e4,6.55e4,6.55e4,6.55e4,6.55e4,6.55e4,6.55e4,6.55e4,6.55e4,6.55e4,6.55e4,6.55e4,6.55e4,6.55e4,6.55e4,6.55e4,6.55e4,6.55e4,6.55e4,6.55e4,6.55e4,6.55e4,6.55e4,6.55e4,6.55e4,6.55e4,6.55e4,6.55e4,6.55e4,6.55e4,6.55e4,6.55e4,6.55e4,6.55e4,6.55e4,6.55e4,6.55e4,6.55e4,6.55e4,6.55e4,6.55e4,6.55e4,6.55e4,6.55e4,6.55e4,6.55e4,6.55e4,6.55e4,6.55e4,6.55e4,6.55e4,6.55e4,6.55e4,6.55e4,6.55e4,6.55e4,6.55e4,6.55e4,6.55e4,6.55e4,6.55e4,6.55e4,6.55e4,6.55e4,6.55e4,6.55e4,6.55e4,6.55e4,6.55e4,6.55e4,6.55e4,6.55e4,6.55e4,6.55e4,6.55e4,6.55e4,6.55e4,6.55e4,6.55e4,6.55e4,6.55e4,6.55e4,6.55e4,6.55e4,6.55e4,6.55e4,6.55e4,6.55e4,6.55e4,6.55e4,6.55e4,6.55e4,6.55e4,6.55e4,6.55e4,6.55e4,6.55e4,6.55e4,6.55e4,6.55e4,6.55e4,6.55e4,6.55e4,6.55e4,6.55e4,6.55e4,6.55e4,6.55e4,6.55e4,6.55e4,6.55e4,6.55e4,6.55e4,6.55e4,6.55e4,6.55e4,6.55e4,6.55e4,6.55e4,6.55e4,6.55e4,6.55e4,6.55e4,6.55e4,6.55e4,6.55e4,6.55e4,6.55e4,6.55e4,6.55e4,6.55e4,6.55e4,6.55e4,6.55e4,6.55e4,6.55e4,6.55e4,6.55e4,6.55e4,6.55e4,6.55e4,6.55e4,6.55e4,6.55e4,6.55e4,6.55e4,6.55e4,6.55e4,6.55e4,6.55e4,6.55e4,6.55e4,6.55e4,6.55e4,6.55e4,6.55e4,6.55e4,6.55e4,6.55e4,6.55e4,6.55e4,6.55e4,6.55e4,6.55e4,6.55e4,6.55e4,6.55e4,6.55e4,6.55e4,6.55e4,6.55e4,6.55e4,6.55e4,6.55e4,6.55e4,6.55e4,6.55e4,6.55e4,6.55e4,6.55e4,6.55e4,6.55e4,6.55e4,6.55e4,6.55e4,6.55e4,6.55e4,6.55e4,6.55e4,6.55e4,6.55e4,6.55e4,6.55e4,6.55e4,6.55e4,6.55e4,6.55e4,6.55e4,6.55e4,6.55e4,6.55e4,6.55e4,6.55e4,6.55e4,6.55e4,6.55e4,6.55e4,6.55e4,6.55e4,6.55e4,6.55e4,6.55e4,6.55e4,6.55e4,6.55e4,6.55e4,6.55e4,6.55e4,6.55e4,6.55e4,6.55e4,6.55e4,6.55e4,6.55e4,6.55e4,6.55e4,6.55e4,6.55e4,6.55e4,6.55e4,6.55e4,6.55e4,6.55e4,6.55e4,6.55e4,6.55e4,6.55e4,6.55e4,6.55e4,6.55e4,6.55e4,6.55e4,6.55e4,6.55e4,6.55e4,6.55e4,6.55e4,6.55e4,6.55e4,6.55e4,6.55e4,6.55e4,6.55e4,6.55e4,6.55e4,6.55e4,6.55e4,6.55e4,6.55e4,6.55e4,6.55e4,6.55e4,6.55e4,6.55e4,6.55e4,6.55e4,6.55e4,6.55e4,6.55e4,6.55e4,6.55e4,
0.0,0.0,0.0,0.0,0.0,0.0,0.0,0.0,0.0,0.0,0.0,0.0,0.0,0.0,0.0,0.0,0.0,0.0,0.0,0.0,0.0,0.0,0.0,0.0,0.0,0.0,0.0,0.0,0.0,0.0,0.0,0.0,0.0,0.0,0.0,0.0,0.0,0.0,0.0,0.0,0.0,0.0,0.0,0.0,0.0,0.0,0.0,0.0,0.0,0.0,0.0,0.0,0.0,0.0,0.0,0.0,0.0,0.0,0.0,0.0,0.0,0.0,0.0,0.0,0.0,0.0,0.0,0.0,0.0,0.0,0.0,0.0,0.0,0.0,0.0,0.0,0.0,0.0,0.0,0.0,0.0,0.0,0.0,0.0,0.0,0.0,0.0,0.0,0.0,0.0,0.0,0.0,0.0,0.0,0.0,0.0,0.0,0.0,0.0,0.0,0.0,0.0,0.0,0.0,0.0,0.0,0.0,0.0,0.0,0.0,0.0,0.0,0.0,0.0,0.0,0.0,0.0,0.0,0.0,0.0,0.0,0.0,0.0,0.0,0.0,0.0,0.0,0.0,0.0,0.0,0.0,0.0,0.0,0.0,0.0,0.0,0.0,0.0,0.0,0.0,0.0,0.0,0.0,0.0,0.0,0.0,0.0,0.0,0.0,0.0,0.0,0.0,0.0,0.0,0.0,0.0,0.0,0.0,0.0,0.0,0.0,0.0,0.0,0.0,0.0,0.0,0.0,0.0,0.0,0.0,0.0,0.0,0.0,0.0,0.0,0.0,0.0,0.0,0.0,0.0,0.0,0.0,0.0,0.0,0.0,0.0,0.0,0.0,0.0,0.0,0.0,0.0,0.0,0.0,0.0,0.0,0.0,0.0,0.0,0.0,0.0,0.0,0.0,0.0,0.0,0.0,0.0,0.0,0.0,0.0,0.0,0.0,0.0,0.0,0.0,0.0,0.0,0.0,0.0,0.0,0.0,0.0,0.0,0.0,0.0,0.0,0.0,0.0,0.0,0.0,0.0,0.0,0.0,0.0,0.0,0.0,0.0,0.0,0.0,0.0,0.0,0.0,0.0,0.0,0.0,0.0,0.0,0.0,0.0,0.0,0.0,0.0,0.0,0.0,0.0,0.0,0.0,0.0,0.0,0.0,0.0,0.0,0.0,0.0,0.0,0.0,0.0,0.0,0.0,0.0,0.0,0.0,0.0,0.0,0.0,0.0,0.0,0.0,0.0,0.0,0.0,0.0,0.0,0.0,0.0,0.0,0.0,0.0,0.0,0.0,0.0,0.0,0.0,0.0,0.0,0.0,0.0,0.0,0.0,0.0,0.0,0.0,0.0,0.0,0.0,0.0,0.0,0.0,0.0,0.0,0.0,0.0,0.0,0.0,0.0,0.0,0.0,0.0,0.0,0.0,0.0,0.0,0.0,0.0,0.0,0.0,0.0,0.0,0.0,0.0,0.0,0.0,0.0,0.0,0.0,0.0,0.0,0.0,0.0,0.0,0.0,0.0,0.0,0.0,0.0,0.0,0.0,0.0,0.0,0.0,0.0,0.0,0.0,0.0,0.0,0.0,0.0,0.0,0.0,0.0,0.0,0.0,0.0,0.0,0.0,0.0,0.0,0.0,0.0,0.0,0.0,0.0,0.0,0.0,0.0,0.0,0.0,0.0,0.0,0.0,0.0,0.0,0.0,0.0,0.0,0.0,0.0,0.0,0.0,0.0,0.0,0.0,0.0,0.0,0.0,0.0,0.0,0.0,0.0,0.0,0.0,0.0,0.0,0.0,0.0,0.0,0.0,0.0,0.0,0.0,0.0,0.0,0.0,0.0,0.0,0.0,0.0,0.0,0.0,0.0,0.0,0.0,0.0,0.0,0.0,0.0,0.0,0.0,0.0,0.0,0.0,0.0,0.0,0.0,0.0,0.0,0.0,0.0,0.0,0.0,0.0,0.0,0.0,0.0,0.0,0.0,0.0,0.0,0.0,0.0,0.0,0.0,0.0,0.0,0.0,0.0,0.0,0.0,0.0,0.0,0.0,0.0,0.0,0.0,0.0,0.0,0.0,0.0,0.0,0.0,0.0,0.0,0.0,0.0,0.0,0.0,0.0,0.0,0.0,0.0,0.0,0.0,0.0,0.0,0.0,0.0,0.0,0.0,0.0,0.0,0.0,0.0,0.0,0.0,0.0,0.0,0.0,0.0,0.0,0.0,0.0,0.0,0.0,0.0,0.0,0.0,0.0,0.0,0.0,0.0,0.0,0.0,0.0,0.0,0.0,0.0,0.0,0.0,0.0,0.0,0.0,0.0,0.0,0.0,0.0,0.0,0.0,0.0,0.0,0.0,0.0,0.0,0.0,0.0,0.0,0.0,0.0,0.0,0.0,0.0,0.0,0.0,0.0,0.0,0.0,0.0,0.0,0.0,0.0,0.0,0.0,0.0,0.0,0.0,0.0,0.0,0.0,0.0,0.0,0.0,0.0,0.0,0.0,0.0,0.0,0.0,0.0,0.0,0.0,0.0,0.0,0.0,0.0,0.0,0.0,0.0,0.0,0.0,0.0,0.0,0.0,0.0,0.0,0.0,0.0,0.0,0.0,0.0,0.0,0.0,0.0,0.0,0.0,0.0,0.0,0.0,0.0,0.0,0.0,0.0,0.0,0.0,0.0,0.0,0.0,0.0,0.0,0.0,0.0,0.0,0.0,0.0,0.0,0.0,0.0,0.0,0.0,0.0,0.0,0.0,0.0,0.0,0.0,0.0,0.0,0.0,0.0,0.0,0.0,0.0,0.0,0.0,0.0,0.0,0.0,0.0,0.0,0.0,0.0,0.0,0.0,0.0,0.0,0.0,0.0,0.0,0.0,0.0,0.0,0.0,0.0,0.0,0.0,0.0,0.0,0.0,0.0,0.0,0.0,0.0,0.0,0.0,0.0,0.0,0.0,0.0,0.0,0.0,0.0,0.0,0.0,0.0,0.0,0.0,0.0,0.0,0.0,0.0,0.0,0.0,0.0,0.0,0.0,0.0,0.0,0.0,0.0,0.0,0.0,0.0,0.0,0.0,0.0,0.0,0.0,0.0,0.0,0.0,0.0,0.0,0.0,0.0,0.0,0.0,0.0,0.0,0.0,0.0,0.0,0.0,0.0,0.0,0.0,0.0,0.0,0.0,0.0,0.0,0.0,0.0,0.0,0.0,0.0,0.0,0.0,0.0,0.0,0.0,0.0,0.0,0.0,0.0,0.0,0.0,0.0,0.0,0.0,0.0,0.0,0.0,0.0,0.0,0.0,0.0,0.0,0.0,0.0,0.0,0.0,0.0,0.0,0.0,0.0,0.0,0.0,0.0,0.0,0.0,0.0,0.0,0.0,0.0,0.0,0.0,0.0,0.0,0.0,0.0,0.0,0.0,0.0,0.0,0.0,0.0,0.0,0.0,0.0,0.0,0.0,0.0,0.0,0.0,0.0,0.0,
1.0,1.0,1.0,1.0,1.0,1.0,1.0,1.0,1.0,1.0,1.0,1.0,1.0,1.0,1.0,1.0,1.0,1.0,1.0,1.0,1.0,1.0,1.0,1.0,1.0,1.0,1.0,1.0,1.0,1.0,1.0,1.0,1.0,1.0,1.0,1.0,1.0,1.0,1.0,1.0,1.0,1.0,1.0,1.0,1.0,1.0,1.0,1.0,1.0,1.0,1.0,1.0,1.0,1.0,1.0,1.0,1.0,1.0,1.0,1.0,1.0,1.0,1.0,1.0,1.0,1.0,1.0,1.0,1.0,1.0,1.0,1.0,1.0,1.0,1.0,1.0,1.0,1.0,1.0,1.0,1.0,1.0,1.0,1.0,1.0,1.0,1.0,1.0,1.0,1.0,1.0,1.0,1.0,1.0,1.0,1.0,1.0,1.0,1.0,1.0,1.0,1.0,1.0,1.0,1.0,1.0,1.0,1.0,1.0,1.0,1.0,1.0,1.0,1.0,1.0,1.0,1.0,1.0,1.0,1.0,1.0,1.0,1.0,1.0,1.0,1.0,1.0,1.0,1.0,1.0,1.0,1.0,1.0,1.0,1.0,1.0,1.0,1.0,1.0,1.0,1.0,1.0,1.0,1.0,1.0,1.0,1.0,1.0,1.0,1.0,1.0,1.0,1.0,1.0,1.0,1.0,1.0,1.0,1.0,1.0,1.0,1.0,1.0,1.0,1.0,1.0,1.0,1.0,1.0,1.0,1.0,1.0,1.0,1.0,1.0,1.0,1.0,1.0,1.0,1.0,1.0,1.0,1.0,1.0,1.0,1.0,1.0,1.0,1.0,1.0,1.0,1.0,1.0,1.0,1.0,1.0,1.0,1.0,1.0,1.0,1.0,1.0,1.0,1.0,1.0,1.0,1.0,1.0,1.0,1.0,1.0,1.0,1.0,1.0,1.0,1.0,1.0,1.0,1.0,1.0,1.0,1.0,1.0,1.0,1.0,1.0,1.0,1.0,1.0,1.0,1.0,1.0,1.0,1.0,1.0,1.0,1.0,1.0,1.0,1.0,1.0,1.0,1.0,1.0,1.0,1.0,1.0,1.0,1.0,1.0,1.0,1.0,1.0,1.0,1.0,1.0,1.0,1.0,1.0,1.0,1.0,1.0,1.0,1.0,1.0,1.0,1.0,1.0,1.0,1.0,1.0,1.0,1.0,1.0,1.0,1.0,1.0,1.0,1.0,1.0,1.0,1.0,1.0,1.0,1.0,1.0,1.0,1.0,1.0,1.0,1.0,1.0,1.0,1.0,1.0,1.0,1.0,1.0,1.0,1.0,1.0,1.0,1.0,1.0,1.0,1.0,1.0,1.0,1.0,1.0,1.0,1.0,1.0,1.0,1.0,1.0,1.0,1.0,1.0,1.0,1.0,1.0,1.0,1.0,1.0,1.0,1.0,1.0,1.0,1.0,1.0,1.0,1.0,1.0,1.0,1.0,1.0,1.0,1.0,1.0,1.0,1.0,1.0,1.0,1.0,1.0,1.0,1.0,1.0,1.0,1.0,1.0,1.0,1.0,1.0,1.0,1.0,1.0,1.0,1.0,1.0,1.0,1.0,1.0,1.0,1.0,1.0,1.0,1.0,1.0,1.0,1.0,1.0,1.0,1.0,1.0,1.0,1.0,1.0,1.0,1.0,1.0,1.0,1.0,1.0,1.0,1.0,1.0,1.0,1.0,1.0,1.0,1.0,1.0,1.0,1.0,1.0,1.0,1.0,1.0,1.0,1.0,1.0,1.0,1.0,1.0,1.0,1.0,1.0,1.0,1.0,1.0,1.0,1.0,1.0,1.0,1.0,1.0,1.0,1.0,1.0,1.0,1.0,1.0,1.0,1.0,1.0,1.0,1.0,1.0,1.0,1.0,1.0,1.0,1.0,1.0,1.0,1.0,1.0,1.0,1.0,1.0,1.0,1.0,1.0,1.0,1.0,1.0,1.0,1.0,1.0,1.0,1.0,1.0,1.0,1.0,1.0,1.0,1.0,1.0,1.0,1.0,1.0,1.0,1.0,1.0,1.0,1.0,1.0,1.0,1.0,1.0,1.0,1.0,1.0,1.0,1.0,1.0,1.0,1.0,1.0,1.0,1.0,1.0,1.0,1.0,1.0,1.0,1.0,1.0,1.0,1.0,1.0,1.0,1.0,1.0,1.0,1.0,1.0,1.0,1.0,1.0,1.0,1.0,1.0,1.0,1.0,1.0,1.0,1.0,1.0,1.0,1.0,1.0,1.0,1.0,1.0,1.0,1.0,1.0,1.0,1.0,1.0,1.0,1.0,1.0,1.0,1.0,1.0,1.0,1.0,1.0,1.0,1.0,1.0,1.0,1.0,1.0,1.0,1.0,1.0,1.0,1.0,1.0,1.0,1.0,1.0,1.0,1.0,1.0,1.0,1.0,1.0,1.0,1.0,1.0,1.0,1.0,1.0,1.0,1.0,1.0,1.0,1.0,1.0,1.0,1.0,1.0,1.0,1.0,1.0,1.0,1.0,1.0,1.0,1.0,1.0,1.0,1.0,1.0,1.0,1.0,1.0,1.0,1.0,1.0,1.0,1.0,1.0,1.0,1.0,1.0,1.0,1.0,1.0,1.0,1.0,1.0,1.0,1.0,1.0,1.0,1.0,1.0,1.0,1.0,1.0,1.0,1.0,1.0,1.0,1.0,1.0,1.0,1.0,1.0,1.0,1.0,1.0,1.0,1.0,1.0,1.0,1.0,1.0,1.0,1.0,1.0,1.0,1.0,1.0,1.0,1.0,1.0,1.0,1.0,1.0,1.0,1.0,1.0,1.0,1.0,1.0,1.0,1.0,1.0,1.0,1.0,1.0,1.0,1.0,1.0,1.0,1.0,1.0,1.0,1.0,1.0,1.0,1.0,1.0,1.0,1.0,1.0,1.0,1.0,1.0,1.0,1.0,1.0,1.0,1.0,1.0,1.0,1.0,1.0,1.0,1.0,1.0,1.0,1.0,1.0,1.0,1.0,1.0,1.0,1.0,1.0,1.0,1.0,1.0,1.0,1.0,1.0,1.0,1.0,1.0,1.0,1.0,1.0,1.0,1.0,1.0,1.0,1.0,1.0,1.0,1.0,1.0,1.0,1.0,1.0,1.0,1.0,1.0,1.0,1.0,1.0,1.0,1.0,1.0,1.0,1.0,1.0,1.0,1.0,1.0,1.0,1.0,1.0,1.0,1.0,1.0,1.0,1.0,1.0,1.0,1.0,1.0,1.0,1.0,1.0,1.0,1.0,1.0,1.0,1.0,1.0,1.0,1.0,1.0,1.0,1.0,1.0,1.0,1.0,1.0,1.0,1.0,1.0,1.0,1.0,1.0,1.0,1.0,1.0,1.0,1.0,1.0,1.0,1.0,1.0,1.0,1.0,1.0,1.0,1.0,1.0,1.0,1.0,1.0,1.0,1.0,1.0,
-2.43808e-02,2.03168e-03,5.41189e-02,2.25047e-02,5.35471e-02,1.24786e-02,-6.22785e-02,2.79533e-02,-2.06498e-02,-3.68844e-02,-4.06198e-02,-5.39438e-02,2.76575e-02,4.00718e-01,5.38128e-01,2.26302e-01,6.53205e-02,-8.66528e-03,-5.02935e-02,1.47891e-02,5.74414e-02,5.71488e-03,-2.25810e-02,4.96940e-02,2.64606e-02,2.83855e-02,7.13957e-02,2.73103e-02,-6.93634e-02,-8.48314e-02,-4.44846e-02,2.41804e-02,4.53420e-01,7.20314e-01,1.04943e+00,1.25452e+00,1.37869e+00,1.89506e+00,2.16078e+00,1.62807e+00,1.99384e+00,1.96251e+00,-2.79592e-01,2.65952e-02,3.49800e-01,5.25078e-01,4.24673e-01,-3.85603e-01,3.27570e-02,3.92137e-01,1.28949e+00,1.23619e+00,-2.38215e-02,-6.31358e-02,9.98566e-03,-6.63210e-02,-1.39944e-02,3.13801e-02,3.18192e-02,-5.14782e-01,4.68846e-01,6.76238e-01,3.59525e-01,1.67977e+00,1.67034e+00,8.72772e-01,1.65476e+00,1.22405e+00,9.74587e-01,1.69455e+00,6.05434e-01,1.47728e-01,-3.92521e-01,-7.56006e-01,-3.28865e-03,-6.50285e-01,-1.06480e-01,-2.11431e-02,4.08382e-01,8.33935e-01,-1.83580e-01,1.84044e-01,4.48563e-02,-8.58156e-02,3.72666e-02,4.37376e-02,4.53985e-01,-6.28274e-02,-1.45629e-01,1.43942e-01,5.90748e-01,1.42403e+00,1.50760e+00,5.73453e-01,7.17327e-01,6.62951e-01,4.66730e-01,5.61423e-01,-8.83292e-02,6.04237e-01,1.55602e-01,-2.54259e-01,-1.76231e-01,-3.49086e-01,-8.56145e-02,-3.65356e-01,-9.50319e-01,-7.48603e-01,-1.61537e+00,2.82046e-01,-5.35201e-02,-2.67089e-02,-5.63152e-03,3.33735e-01,5.66491e-01,6.46295e-01,1.68059e+00,1.65444e-01,2.12414e-01,8.11755e-01,5.92225e-01,4.68634e-01,5.50330e-01,1.04072e-01,1.78984e-01,6.31811e-02,2.38086e-01,1.99224e-02,2.81922e-01,8.52027e-02,2.82656e-01,-1.69249e-01,-1.60440e-01,1.05981e-01,-2.64330e-01,-1.09021e+00,-3.89645e-01,-1.71985e-01,-3.16568e-01,-3.51048e-01,5.24955e-02,6.71687e-03,4.17247e-01,9.67957e-01,1.80681e+00,-8.54516e-01,1.39628e-01,8.23091e-01,-1.03453e-01,-5.56990e-02,3.51601e-01,3.80002e-01,5.77942e-01,1.72917e-01,1.47648e-01,1.95413e-01,3.64948e-01,1.66899e-01,2.41313e-01,2.53468e-01,2.01929e-01,1.40207e-01,-1.83014e-01,-7.80275e-01,2.74307e-02,1.98905e-01,2.89484e-01,2.97662e-01,2.61870e-02,1.04168e+00,3.75092e-01,2.76315e-01,3.12717e-01,2.14144e-01,-8.67525e-02,-2.11052e-01,1.33118e-01,6.73166e-02,2.34659e-01,1.41211e-01,3.78158e-01,4.02863e-01,3.81007e-01,3.54818e-01,3.18043e-01,2.54279e-01,2.60216e-01,1.12149e-03,-8.42985e-02,1.88128e-01,-1.14772e-01,-5.03085e-01,1.21029e-01,2.41881e-01,7.08968e-01,2.09544e-02,2.21650e-01,9.53095e-01,-2.26507e-01,-1.87052e-01,5.81868e-01,2.06969e-01,1.02992e-01,-2.75651e-01,-2.47308e-02,6.96677e-02,1.28971e-01,-4.60914e-02,2.11507e-01,2.27084e-01,2.02262e-01,6.24600e-01,4.70520e-01,1.68914e-01,1.66648e-01,2.84095e-02,1.37645e-01,3.53208e-02,-3.33897e-01,-1.56531e-01,3.55998e-01,-3.80886e-01,2.86143e-01,1.14004e-01,-2.76776e-01,-5.52331e-01,-5.45107e-01,1.25464e-01,7.79328e-01,-8.72408e-02,1.52478e-01,-2.07072e-01,-2.62128e-01,1.29955e-01,1.37721e-02,1.42965e-01,5.70605e-02,2.99985e-01,6.75821e-02,6.78379e-02,3.02500e-01,-8.83655e-03,5.13349e-02,-4.64588e-02,-3.20402e-01,-2.46090e-02,1.27352e-01,-5.61475e-01,4.01844e-01,-1.38384e-02,3.16477e-02,1.17009e-01,3.57402e-01,-8.81205e-01,1.76271e-01,8.11757e-01,-1.27265e-02,-1.73101e-01,1.70123e-01,1.74745e-01,-7.77851e-02,1.59758e-02,2.69472e-01,-7.01044e-02,-2.06841e-01,2.56463e-01,9.38732e-02,2.27738e-01,-5.84807e-02,5.94880e-02,-6.35922e-02,-4.35484e-02,1.13365e-01,-2.62352e-01,-1.76870e-01,-2.15454e-01,-1.28876e+00,-3.58246e-01,1.58932e-01,-1.00284e+00,2.92945e-01,-8.51145e-01,6.48211e-01,7.34380e-01,3.68161e-02,2.68254e-03,2.18574e-01,-8.05389e-03,-2.84438e-02,-1.48296e-01,2.12786e-02,1.90510e-01,-5.23781e-02,-1.68416e-01,-1.40724e-01,-5.84865e-01,1.10945e-01,1.86861e-01,3.10727e-01,3.54226e-01,4.38706e-01,1.12439e-01,1.15088e-02,-3.29166e-02,-1.03898e+00,-1.48174e+00,-1.45084e+00,-7.19978e-01,5.71775e-01,1.56225e-01,-5.45691e-01,3.92174e-01,-2.56235e-01,5.61387e-01,4.00966e-02,-2.20679e-01,1.90315e-01,1.56396e-03,-2.16762e-01,-1.77997e-01,1.41607e-01,1.44023e-01,1.57629e-01,-1.04015e-01,3.62247e-02,1.48733e-01,1.86450e-01,2.58580e-01,7.71751e-01,7.78614e-01,9.23039e-01,1.10030e+00,7.60287e-01,-5.10384e-01,-1.10974e+00,1.18100e-02,3.65124e-01,6.84977e-01,-9.79366e-01,1.61620e-01,2.34796e-01,-1.52390e-01,1.82590e-01,-1.13050e-01,-2.32088e-01,2.41353e-01,-1.48446e-02,-1.38536e-01,-5.77458e-03,-1.75520e-02,3.12557e-01,6.03712e-02,7.31349e-02,2.75935e-01,7.61271e-02,3.45132e-01,1.30759e-01,8.24646e-01,1.26366e+00,1.96045e+00,2.21624e+00,1.01783e+00,-5.64796e-01,4.78808e-01,-1.73942e-01,1.10189e-01,-4.46347e-01,2.57892e-01,-3.06581e-01,-6.77084e-01,9.46985e-02,1.17759e-01,-2.23195e-02,-1.98201e-01,-1.10371e-01,-2.37267e-01,-5.77807e-02,3.73501e-01,3.88860e-01,4.60279e-01,2.11328e-01,-2.27972e-01,1.98396e-01,2.38608e-01,3.10306e-01,-1.59102e-01,-2.64552e-01,1.18896e-01,7.70535e-01,4.35523e-01,-7.81481e-01,3.13824e-01,-9.46331e-01,8.43291e-01,-6.95302e-01,-4.98778e-01,2.20247e-01,-3.36234e-01,2.61132e-01,-6.97088e-02,-1.86846e-01,-6.10098e-02,-2.84357e-02,2.43815e-01,3.34247e-02,4.45201e-01,2.16744e-01,-3.98354e-02,-7.44817e-02,2.71449e-01,1.84034e-01,-1.05056e-01,-2.58813e-01,-1.66699e-02,-5.75544e-01,-1.64313e-01,-1.77809e-01,-1.38246e-02,2.24821e-01,-8.56786e-01,-2.57995e-01,9.05750e-01,1.25496e-01,-8.45777e-01,-5.41206e-01,-2.45146e-02,-2.16116e-01,-3.36576e-01,-2.16687e-01,1.75143e-02,8.74806e-02,9.92302e-02,2.93480e-03,3.55982e-01,1.94425e-01,1.42322e-01,9.60295e-03,4.82452e-02,3.50150e-02,-3.81746e-01,-3.22715e-01,-2.94923e-01,-1.44291e-01,-4.30528e-01,2.46711e-01,4.63269e-01,3.87687e-01,4.52224e-02,9.16381e-01,1.26570e+00,7.20128e-01,1.42169e-01,-8.77232e-02,-1.78156e-01,7.90242e-02,1.75502e-01,1.65620e-01,1.88679e-01,2.51184e-01,4.15104e-01,1.05812e-01,1.51120e-01,-8.68560e-02,-3.34877e-01,-1.58954e-01,-2.25624e-01,8.53042e-03,-1.35134e-01,-2.15170e-01,2.94739e-02,8.35952e-02,-1.12567e-01,-1.33664e-01,2.58172e-02,-8.43192e-02,8.25117e-01,6.30354e-02,6.02490e-01,1.77725e-01,1.23368e-01,9.07475e-01,-1.18348e-01,-3.28279e-01,6.01612e-02,1.13536e-01,2.32036e-01,1.13206e-01,2.33374e-01,-9.03590e-02,-9.56584e-02,1.51931e-02,-1.09982e-01,-3.86135e-02,2.24977e-01,-3.08491e-01,6.72549e-02,-3.71809e-01,-1.18571e-01,3.13108e-02,3.99717e-02,-4.18184e-02,-1.07704e+00,-2.37632e-01,8.00686e-01,9.61655e-01,5.46946e-01,-8.56480e-02,-1.92500e-01,-4.16197e-01,-2.64544e-01,8.62641e-02,-9.88311e-02,1.72422e-01,5.51223e-01,4.05911e-01,4.46028e-02,-3.85149e-01,-5.45499e-01,-3.89600e-01,-1.35530e-01,1.17246e-01,-1.42163e-01,-1.04924e-01,1.90947e-01,1.64600e-01,-1.05896e-01,1.20684e-01,4.65512e-01,7.97141e-02,2.30538e-02,-8.54593e-01,-1.13648e-01,-2.23918e-01,-5.53226e-01,-5.75861e-01,5.57561e-02,-7.91802e-02,3.25808e-01,-2.12112e-01,5.83080e-02,-2.14746e-01,-2.11314e-01,2.43760e-02,-1.28014e-01,-2.95844e-01,-3.84182e-01,-3.59623e-01,-1.62336e-01,1.19484e-01,4.05934e-01,2.46675e-01,1.68621e-01,2.25744e-01,-3.92879e-02,3.18127e-01,8.84046e-01,-1.36663e-01,2.05702e-01,-2.89376e-01,-3.59998e-01,-5.69297e-02,8.05585e-01,7.32427e-01,9.18388e-01,3.49581e-01,2.51434e-01,2.10324e-01,2.88344e-01,-1.52650e-01,-1.97157e-01,-8.09963e-02,-4.03444e-01,-2.76145e-01,-1.63589e-01,-1.77996e-01,9.79668e-02,2.11354e-01,-1.79516e-01,1.94015e-01,3.16196e-02,4.29830e-01,1.54377e-02,1.89205e-01,6.31543e-01,6.17626e-01,9.61231e-01,-8.79574e-01,-5.99311e-02,-2.22050e-01,1.61721e+00,2.25671e+00,8.10685e-01,2.92426e-01,-1.27822e-01,1.95023e-01,3.88077e-02,1.70997e-02,-4.53808e-02,-2.45695e-01,-9.37965e-02,-2.86518e-01,7.50901e-03,-2.16470e-01,-4.37600e-03,9.35144e-02,-2.61912e-01,-4.82863e-02,1.03982e-01,4.32943e-01,-5.52185e-02,4.25621e-01,1.99715e-01,-8.29981e-01,1.46252e-01,2.14383e-01,1.59144e-01,-2.81346e-01,2.40253e-01,7.88737e-01,8.03124e-01,4.36036e-01,8.41595e-02,2.45690e-01,2.26902e-01,5.12713e-02,1.52853e-01,-2.00620e-02,1.46392e-01,-1.31090e-01,-1.72644e-02,-5.97254e-02,-1.21710e-01,-2.13217e-01,2.27456e-02,3.60626e-02,1.50549e-01,9.38201e-02,-3.20348e-01,3.13742e-01,1.79008e-01,-5.11978e-01,-6.41306e-01,9.95930e-02,2.59017e-01,-2.78205e-02,3.49887e-04,2.23009e+00,1.99181e+00,1.06939e-01,-6.38120e-03,1.31611e-01,1.64920e-01,1.06266e-01,5.43702e-02,6.77972e-02,2.07319e-01,6.77026e-02,2.73755e-01,4.37921e-01,9.88840e-02,-4.20602e-02,4.38633e-01,2.85059e-01,2.21371e-01,-2.41858e-01,-4.03885e-02,5.79304e-01,1.00193e+00,-3.39080e-01,-1.04986e-01,-4.83536e-01,7.65074e-02,4.86384e-02,5.64974e-02,-6.82851e-01,8.33651e-01,4.16067e-03,-7.15640e-01,8.30042e-02,1.58287e-01,1.14709e-01,8.28173e-02,1.58625e-01,1.20721e-01,3.89366e-01,3.94422e-01,4.99166e-02,2.99677e-02,5.44847e-01,2.93647e-01,4.04098e-01,4.06913e-01,8.24095e-02,-2.87512e-01,6.32926e-01,1.50351e+00,-1.14287e-01,-1.13673e+00,1.41327e-01,2.09146e-02,-7.24388e-02,-8.35819e-02,1.24643e+00,-2.05644e+00,-5.09154e-01,-3.81194e-03,-2.67406e-03,-2.47793e-01,6.83826e-01,-2.16419e-01,5.43668e-01,-8.61037e-02,7.70476e-02,3.78694e-02,3.87782e-01,7.84665e-02,6.41281e-01,4.32705e-01,6.60344e-01,1.01541e+00,9.23586e-01,1.05492e+00,1.17626e+00,1.28538e+00,4.09848e-01,-2.44803e-01,9.34037e-02,3.81926e-02,7.05515e-02,4.28533e-02,5.33564e-03,1.04978e+00,1.30858e+00,5.63134e-01,4.81213e-01,8.13188e-01,5.64465e-01,4.33854e-01,6.13348e-01,1.81301e-02,4.89164e-01,4.59583e-01,6.60350e-01,6.33630e-01,5.74789e-01,7.62020e-01,7.06645e-01,2.66280e-01,6.80916e-01,6.68738e-01,1.27973e-01,-3.41820e-02,2.82096e-01,4.70874e-01,1.61476e-03,-1.29101e-02,1.65540e-02,4.14006e-02,-7.44557e-02,-5.99358e-03,3.47133e-01,8.86810e-01,3.19797e-01,2.75574e-01,5.77450e-02,6.50200e-01,-2.74869e-01,-6.79623e-02,1.09052e-01,-1.05732e+00,3.29223e-01,-6.66621e-02,3.14090e-01,-3.80889e-01,-2.44831e-01,-3.88109e-01,9.62693e-02,-1.62878e-01,-6.28725e-01,-5.45672e-01,-3.67505e-03,8.04975e-02,-5.21960e-02,-4.98978e-02,
-8.39835e-02,-6.07526e-02,-7.75926e-02,-3.15702e-02,2.32598e-02,-6.04042e-02,-7.82459e-02,4.67140e-02,-5.43566e-02,-3.01948e-02,8.00661e-02,5.77448e-02,5.22486e-01,1.02373e+00,8.85414e-01,2.12903e-01,3.75629e-02,-6.32728e-02,-2.48849e-02,2.68564e-04,-1.56803e-02,9.69624e-03,-6.24311e-02,4.54352e-02,-8.57091e-02,4.76330e-03,4.00846e-02,-4.57616e-02,5.47019e-02,-1.25971e-02,6.95965e-03,-7.76264e-02,2.78100e-01,3.88247e-01,5.10620e-01,4.56653e-01,5.96819e-01,7.74857e-01,2.15186e+00,-6.14280e-01,-6.93149e-01,-9.31536e-02,-5.98139e-01,-6.28437e-01,-2.10425e-01,-2.74189e-01,5.26996e-01,2.27281e-01,5.82716e-02,-1.17705e-01,8.76146e-01,1.16468e+00,-6.53545e-02,5.79963e-02,2.65167e-02,-2.09965e-02,-7.55635e-02,7.76805e-02,1.70813e-01,-1.23532e+00,-6.35177e-01,7.52987e-01,-6.77081e-01,-2.77414e-01,3.67930e-01,1.48941e+00,4.70784e-01,9.47827e-01,1.13041e+00,2.80818e-01,1.11973e+00,4.17538e-01,3.11598e-01,2.42718e-01,3.82650e-01,1.87642e-01,2.84188e-01,5.25446e-01,3.80134e-01,1.42770e-01,1.07403e+00,9.60734e-01,1.83223e-02,3.85246e-02,2.63178e-02,-2.73573e-02,2.15640e-01,-1.16759e+00,-3.04682e-01,8.51586e-01,7.80929e-01,1.22668e+00,5.04008e-01,8.07241e-01,2.04292e-01,7.65311e-01,2.39415e-01,-1.61261e-01,7.04829e-03,3.95736e-01,2.01912e-01,-7.03056e-02,-4.13748e-01,-1.54206e-01,3.16526e-01,-3.30961e-01,-4.91306e-01,-2.50097e-01,8.11128e-02,8.31230e-01,1.07074e+00,4.84832e-04,8.65374e-02,-1.06671e-01,5.38426e-01,-1.07778e+00,-6.77314e-01,7.21077e-01,8.82256e-01,7.63005e-01,2.67855e-01,2.83516e-01,8.51453e-01,2.84447e-01,2.22287e-01,6.08548e-03,3.04770e-01,-1.23238e-01,2.14513e-01,-1.90835e-02,2.27570e-03,-3.84849e-02,1.60566e-02,-1.00547e-01,-1.51616e-01,-1.85431e-01,1.17760e-01,5.39327e-01,-3.10392e-01,2.81282e-01,-3.67226e-02,-8.55939e-02,6.26226e-01,-1.10941e+00,-4.27412e-01,-4.63788e-02,1.17485e-01,4.36619e-01,3.28072e-01,4.83377e-01,2.08285e-01,9.79553e-02,3.01964e-01,-1.56425e-01,2.17512e-02,-1.03937e-01,3.80421e-01,-1.43101e-02,1.87941e-01,-8.10480e-02,-6.09876e-02,1.38593e-02,-3.41148e-01,6.25535e-02,1.56930e-01,7.18148e-01,7.86022e-01,1.42876e-01,8.64527e-02,1.94445e-01,1.73457e-02,-4.54290e-01,7.39710e-02,-1.77149e-02,1.25561e-01,2.54379e-01,-2.10738e-01,-5.21928e-02,-3.37684e-01,2.70688e-02,-2.84074e-01,-1.52660e-01,-2.41239e-01,-1.89760e-01,-7.64446e-04,-3.37404e-01,-1.81803e-01,-2.80080e-01,1.24086e-01,-1.43904e-01,-6.76498e-02,4.13608e-01,1.80136e-01,4.18082e-01,1.95142e-01,8.69424e-01,-2.54612e-02,7.17935e-01,5.77161e-01,-9.45317e-01,3.27455e-01,4.04749e-02,-5.03853e-02,-1.73711e-01,2.86535e-01,8.22985e-02,-3.22832e-01,3.58540e-02,-3.11057e-01,-2.56390e-02,-3.75570e-01,-2.80441e-01,-1.70671e-01,-1.93547e-01,-2.39587e-01,1.18289e-01,-3.74096e-02,-4.00770e-02,2.62851e-01,-2.02277e-01,-1.75253e-01,-2.54740e-01,4.48618e-01,6.51489e-01,3.70480e-02,1.01583e+00,9.12396e-02,-2.32798e-02,7.78750e-02,2.45469e-01,-1.58480e-01,-2.30355e-01,-5.86392e-01,3.58996e-03,1.08695e-01,5.13472e-03,-1.13965e-01,-1.21540e-01,-2.17680e-01,-2.46366e-01,-4.52627e-01,-1.39565e-01,-2.36780e-01,-1.03400e-01,-1.50433e-01,-5.74817e-02,-4.48610e-01,-2.74875e-01,-4.13647e-01,6.23135e-01,-2.55701e-01,2.61863e-02,2.55659e-02,-4.65275e-01,-6.58106e-03,3.85917e-01,8.61330e-02,8.15218e-02,-4.88274e-01,-3.84178e-01,-4.16847e-01,-9.73614e-02,-3.32314e-01,-3.82407e-02,-4.39731e-02,4.52166e-02,-1.24978e-01,-2.76188e-01,-1.85658e-01,-1.33044e-01,7.79944e-02,-3.85041e-02,-9.48850e-03,-2.01641e-01,-3.47321e-01,-4.82185e-01,-3.67535e-01,6.14558e-02,-1.29875e+00,-2.53517e-01,-3.64796e-03,-5.17722e-01,-2.40867e-02,-3.96231e-01,-1.10821e-01,-2.03021e-01,-2.30289e-01,-2.64833e-01,-2.35251e-01,-2.26827e-01,-3.11495e-02,-3.84623e-02,2.55288e-01,-3.76987e-01,-1.10797e+00,-4.59568e-01,-1.64162e-01,1.59618e-01,9.08895e-02,-3.57786e-02,-7.07312e-02,-1.41507e-02,-3.08276e-01,-4.61039e-01,-4.91605e-01,-7.08521e-01,-1.07915e+00,-2.90746e-01,4.63049e-02,2.39414e-01,-4.32120e-01,-1.12257e-01,-1.87672e-01,4.79141e-01,1.92312e-01,-3.23275e-01,-2.58667e-01,-1.21119e-01,-1.16494e-01,-6.64559e-01,-1.78515e-01,-8.89975e-01,-4.39295e-01,-5.46599e-01,-2.37834e-02,1.00965e-01,-3.43215e-02,2.37392e-01,1.26237e-01,1.06092e-01,-1.35955e-01,-1.43201e-01,-4.40230e-01,-6.09821e-01,-2.62590e+00,7.32126e-02,4.08580e-02,-4.06287e-01,1.34539e-01,1.16632e-01,-4.48624e-01,5.70703e-02,-2.01597e-01,-1.55126e-01,-1.82044e-01,-6.29450e-01,-2.47361e-01,-2.18442e-01,-2.75528e-01,-4.42974e-01,-4.06012e-01,-2.45920e-01,1.97093e-01,-1.17102e-02,5.28030e-02,1.79010e-01,3.47327e-01,3.40839e-01,3.21759e-01,3.20893e-01,6.35285e-01,2.25095e-01,-4.25456e-01,1.52312e-01,1.16709e-01,-5.27844e-01,-3.90749e-01,-1.03351e-01,-5.28134e-01,6.69786e-02,3.83706e-02,-9.29675e-02,2.15400e-01,2.23063e-01,1.28585e-01,2.31253e-01,-1.04787e-01,-9.27210e-03,-1.35156e-01,4.43181e-02,7.59913e-03,1.27925e-01,-7.30450e-02,1.15361e-01,8.38623e-03,2.11040e-01,1.29519e-01,1.14332e+00,1.01435e+00,8.19505e-01,3.35216e-01,8.09200e-01,-1.86319e-02,-1.45427e-03,-1.04414e+00,7.01767e-01,4.54483e-01,2.69521e-02,3.51882e-02,5.53816e-01,3.09617e-01,4.33758e-01,1.24996e-01,2.52636e-01,5.66998e-02,1.59515e-01,-1.45705e-01,4.56432e-02,1.20877e-01,-2.35938e-02,-1.09898e-01,2.30567e-01,-6.27873e-02,1.68098e-01,5.46358e-01,2.94428e-01,4.25881e-01,4.89925e-01,4.48409e-01,7.07293e-01,-4.08414e-02,2.68287e-01,-6.15196e-01,1.12254e+00,2.24939e-01,3.88411e-01,4.24395e-01,2.35921e-02,3.46347e-01,2.43919e-01,2.41374e-01,-7.71540e-03,-9.36152e-02,-6.80774e-02,2.59227e-01,4.27275e-02,1.62261e-01,2.42999e-01,7.21804e-02,8.62069e-02,-4.10455e-01,3.30358e-02,3.40252e-01,2.62366e-02,-1.04164e-01,1.10871e+00,8.81197e-01,1.44478e+00,6.89325e-03,1.41619e-01,-6.54293e-01,6.31336e-01,-2.43995e-01,1.48135e-01,3.68738e-01,2.82151e-01,2.11801e-04,3.53155e-01,2.29606e-01,4.63349e-01,8.55236e-02,3.43691e-01,4.47766e-01,4.21173e-01,4.51384e-01,6.35081e-01,3.44727e-01,4.12148e-01,3.09919e-01,3.93798e-01,-8.48030e-02,-1.54188e-01,6.62222e-01,1.50806e+00,9.24246e-02,7.87226e-01,-5.78318e-02,-4.31848e-01,4.54600e-01,-3.19436e-01,5.62643e-02,1.48107e-02,2.72267e-01,2.49158e-01,3.00227e-01,3.84112e-01,3.41147e-01,3.50360e-01,-7.23847e-02,3.57788e-01,5.30690e-01,4.22101e-01,3.05506e-01,3.22319e-01,4.02219e-01,6.78982e-02,3.90499e-01,6.60562e-01,9.55243e-02,4.56912e-02,-6.44716e-01,1.59871e+00,-4.76859e-01,3.42300e-01,-1.16287e-01,-6.09757e-01,-4.83924e-01,-1.22994e-02,2.97678e-01,-7.67811e-02,-1.20544e-01,2.91208e-01,1.47037e-01,2.19221e-01,-2.22707e-01,4.20152e-02,4.77322e-01,2.35652e-01,3.69008e-01,1.09572e-01,4.14632e-01,2.12286e-01,3.61098e-01,3.83105e-01,1.07363e-01,3.92398e-01,1.42543e-01,3.78084e-01,8.80452e-01,1.33357e+00,1.63586e-01,1.72156e+00,-7.30780e-03,-6.88922e-01,-5.15277e-01,-2.96949e-01,-6.73562e-02,1.27579e-01,-2.37721e-01,1.15441e-01,-4.10184e-02,-2.64268e-01,3.17647e-02,1.60722e-01,-1.92330e-01,2.21635e-01,2.53303e-01,3.47734e-01,3.11197e-01,2.87423e-01,1.66546e-01,2.96872e-01,1.09168e-01,2.76324e-02,-2.42610e-01,-9.26328e-02,4.67535e-01,2.95747e-01,3.14081e+00,1.26218e+00,2.05659e-03,-3.14702e-01,-2.61072e-01,-4.49609e-01,1.58884e-01,1.63169e-01,-1.06725e-01,-1.70855e-01,-1.91941e-02,-1.40034e-01,-5.25205e-02,-1.99736e-01,-1.62829e-01,-1.69209e-01,4.97097e-02,3.03657e-01,2.51698e-01,1.13461e-01,4.14963e-01,1.85870e-01,3.02587e-02,8.12513e-02,-5.37163e-01,-1.05579e-01,-6.62687e-02,-1.47918e-01,2.37124e+00,1.07305e-01,1.23924e-01,9.15813e-01,-5.88378e-01,-3.18693e-01,-5.90381e-01,2.10370e-01,-4.49898e-01,-2.98755e-01,3.23998e-01,-1.61415e-01,1.81287e-01,-1.66059e-01,5.19021e-02,3.70835e-02,1.99602e-02,-6.88417e-02,-1.70370e-01,1.27527e-01,-1.29735e-01,1.07311e-01,-9.66574e-02,-2.22114e-01,-3.68169e-01,4.16587e-01,-3.14599e-01,2.87416e-01,4.62076e-01,-5.51387e-01,7.15856e-03,-7.14969e-03,2.00615e-01,1.43635e-01,-4.27349e-02,1.81308e-01,-5.09586e-01,5.40158e-02,-6.42116e-02,-1.18125e-01,2.08293e-01,-2.52301e-02,-4.31345e-01,1.26697e-02,-4.15744e-01,-2.95170e-01,-5.17596e-01,-5.60304e-01,-3.16487e-01,-1.04919e-01,-5.71263e-02,2.12130e-01,1.25998e-01,-3.50357e-01,-1.80177e-01,-2.90242e-01,-2.16647e-01,-6.37333e-01,6.11909e-02,-2.68907e-02,9.58483e-02,-1.92695e-01,-1.95999e-01,8.68062e-04,3.15724e-03,-4.28816e-01,-8.27062e-02,-4.41379e-02,-3.31140e-01,4.17564e-02,-3.43565e-01,-2.92034e-01,-1.14273e-01,-4.19385e-01,-7.73995e-01,-7.34403e-01,-5.44932e-02,-2.43807e-01,-2.23455e-01,5.43470e-01,3.43232e-02,-1.70806e-01,-3.58957e-01,-1.83545e-02,-3.16197e-01,-2.16156e-02,1.91001e-02,6.60598e-02,-5.17040e-01,-1.09956e+00,-3.11582e-01,1.28191e-01,-4.36385e-02,-2.39049e-01,9.43362e-02,-1.80440e-01,-5.44892e-01,3.83443e-02,1.97206e-01,-1.06953e-01,-2.45944e-01,-1.86230e-01,1.33838e-01,1.28058e-01,-7.17683e-02,1.02206e-02,-4.19352e-01,-1.99788e-01,-4.02250e-01,-1.73650e-01,-3.98357e-01,1.06201e+00,8.50064e-01,4.93377e-02,7.44504e-02,3.89631e-02,4.32140e-01,-4.36106e-01,6.37471e-01,-4.90503e-01,1.09662e-01,5.91843e-02,1.83392e-01,-4.99748e-01,-7.53947e-01,-9.51953e-02,-2.44946e-01,-2.32457e-01,-3.80172e-02,3.80963e-01,5.31075e-01,5.57054e-02,1.03595e-02,-1.57297e-01,2.71687e-01,-1.66588e-02,-8.89453e-01,-1.44382e-02,-1.38238e-01,1.13013e+00,8.11187e-01,-6.45442e-02,2.97864e-02,5.94471e-02,1.92764e-02,-3.81842e-01,7.23882e-01,9.25328e-02,6.03409e-01,5.74206e-01,4.40150e-01,-3.15916e-01,-2.23237e-01,7.79728e-02,2.30802e-01,2.27574e-01,-6.81277e-01,-3.67398e-01,-2.91393e-01,-1.05630e-01,-9.53093e-02,1.05501e-01,-2.30302e-01,3.21494e-01,-2.51630e-01,-2.69597e-01,-3.71840e-01,-2.94546e-01,-5.59151e-02,2.12544e-02,-3.40973e-02,7.63584e-03,-7.64297e-02,3.12977e-04,-6.18939e-02,-8.29541e-02,3.81808e-01,3.92182e-01,2.96503e-01,1.72976e-01,-2.51540e-01,4.20026e-02,-4.16517e-01,-8.68269e-02,3.45298e-02,7.99388e-01,-2.40956e-01,-8.17017e-01,-2.54997e-01,1.02799e+00,1.02510e+00,3.86565e-01,-6.52690e-02,-7.77567e-01,-6.98156e-02,3.21457e-02,-2.12177e-02,6.09748e-04,
3.77128e-02,5.89254e-02,3.94615e-02,-3.14191e-02,-6.17249e-02,3.48016e-02,-1.30131e-02,5.82104e-02,-8.00386e-02,-6.40469e-02,2.64698e-02,3.70023e-03,1.61880e-02,-1.47258e-01,-2.98123e-01,-5.69555e-02,-3.12799e-02,4.02107e-02,6.87561e-02,2.53808e-02,-3.06673e-04,3.51702e-02,-7.34028e-02,4.42554e-03,-6.85488e-02,-5.45472e-02,7.04736e-02,-7.96455e-02,-2.30893e-02,6.09030e-02,8.27732e-02,5.31149e-02,-6.91488e-03,-2.11627e-01,-9.17432e-01,-9.75377e-01,-8.94872e-01,-8.42470e-01,-2.51469e-01,-4.20852e-01,-1.91408e+00,8.96437e-02,8.46626e-01,-2.27803e+00,-1.06610e+00,-9.29590e-01,-8.39477e-01,-6.25015e-01,-6.47298e-01,-2.01618e-01,-2.87208e-01,-2.62572e-01,8.06998e-03,-7.57723e-03,7.52027e-02,-2.69999e-02,-1.84313e-02,-6.12792e-02,-9.03501e-03,-7.88386e-01,-7.05143e-01,5.74550e-02,-8.11599e-01,-1.64957e+00,-1.92072e+00,-1.79786e+00,-1.66366e+00,-1.92386e+00,-2.41859e+00,-3.12263e-01,2.28609e-01,-2.60500e-01,-8.93422e-01,-9.34839e-01,-8.81488e-01,-4.32978e-01,-2.93663e-02,-4.03525e-01,-6.55095e-02,-8.83092e-01,-3.28887e-01,-3.85542e-02,-3.98698e-02,8.00967e-02,-3.68112e-02,-6.68157e-02,4.05940e-02,-9.07994e-01,-7.55923e-01,-3.59692e-01,-9.12360e-01,-8.15223e-01,-7.02270e-01,-1.06108e+00,-9.52502e-01,-8.27451e-01,-1.32458e+00,-1.27748e+00,-3.98838e-01,-1.06409e+00,-2.14413e-01,-7.70461e-02,-3.63543e-02,6.12590e-01,6.82173e-01,6.89185e-01,4.13081e-01,2.23045e-01,4.29208e-01,-1.20392e+00,7.46022e-02,3.32453e-02,-2.86419e-02,-2.87458e-02,-8.45080e-02,5.49894e-02,7.05770e-01,-4.35614e-01,-6.59482e-01,5.68708e-02,1.86235e-01,3.84986e-01,4.98316e-01,2.04415e-02,-2.31400e-01,-2.83883e-01,-1.63456e-02,-5.02298e-01,2.89952e-01,7.74293e-02,-3.86396e-01,3.27736e-01,9.82781e-02,5.20385e-01,8.38625e-01,1.12424e+00,1.12310e+00,5.80614e-01,-2.08005e-01,2.63726e-02,4.13256e-02,-1.53415e-02,-3.85355e-01,-1.55047e+00,-8.26842e-01,-7.93808e-01,-9.49790e-02,-1.31886e-01,5.12808e-01,2.69641e-01,-1.04010e-01,-1.98055e-01,1.18661e-01,2.54760e-01,-2.25280e-01,3.03955e-01,8.82488e-03,1.70809e-02,6.84696e-02,2.09184e-01,2.88528e-01,-3.07527e-01,2.57074e-01,-2.05762e-01,9.50890e-02,-7.01170e-01,-5.74321e-01,1.12934e-02,8.63778e-02,6.58158e-02,5.92592e-01,2.17574e-01,7.95114e-02,-1.82123e-01,7.95112e-02,-6.79519e-03,-1.61927e-01,6.77771e-02,1.86898e-01,1.01608e-01,1.07924e-01,-1.04170e-01,-1.01587e-01,1.49561e-01,1.87986e-01,2.71304e-02,-1.19892e-01,4.30906e-02,-1.11391e-01,-7.47299e-02,2.16975e-01,2.62436e-02,4.55506e-01,1.97437e-01,4.43932e-02,1.12879e-01,1.09271e-01,9.45650e-01,7.19494e-01,9.32838e-01,6.72981e-02,-1.06896e-02,1.63854e-01,1.15207e-01,-1.61119e-01,-2.09521e-01,2.20322e-01,1.09984e-01,1.20342e-01,6.09036e-02,-6.31778e-02,2.27050e-01,1.24317e-01,3.44607e-01,1.43338e-01,1.13542e-02,-2.39595e-01,-2.87065e-01,-1.13706e-01,-3.34145e-02,-3.52323e-02,9.60210e-01,6.64266e-02,-3.54884e-01,2.46298e-01,9.70314e-01,7.07263e-01,1.28571e-01,-1.20169e-01,5.19189e-01,2.70791e-01,-3.36060e-01,-1.73419e-02,4.70948e-02,2.76863e-01,3.15839e-02,2.33086e-01,-1.23413e-01,-2.62778e-01,1.13724e-01,4.49362e-02,5.57446e-02,-4.25434e-01,-3.57723e-02,-4.41839e-02,3.24579e-01,-2.51596e-01,-2.46867e-01,-1.13672e-01,-7.35237e-02,4.34797e-01,-7.97565e-01,2.76955e-02,6.98402e-01,1.88320e-01,1.86187e-01,-4.27709e-02,1.15767e-01,-1.06720e-01,-3.29043e-02,7.87527e-02,5.08263e-02,2.42559e-01,3.21994e-02,4.42758e-01,-2.17961e-01,-1.85133e-01,-1.41054e-01,-8.45751e-02,-9.20411e-02,-7.01567e-02,-2.01917e-01,-2.01498e-01,-6.36360e-02,1.21842e-01,5.72939e-01,3.19397e-02,-1.73424e-01,6.78205e-01,-4.32220e-01,-8.56770e-02,7.40282e-01,-8.96959e-02,1.61231e-01,-1.11819e-01,-1.54125e-01,-1.76057e-01,1.19308e-01,2.00648e-02,-8.93136e-02,6.50630e-02,3.71114e-02,3.53825e-01,-5.23720e-02,-4.09198e-01,-4.93412e-01,-3.34633e-01,-2.70274e-03,-3.07204e-01,-4.88070e-01,1.56621e-01,1.09377e-01,2.09569e-01,-4.91398e-02,-2.85578e-01,2.74011e-01,9.34887e-01,4.10636e-01,1.96348e-01,-1.09287e+00,1.09958e+00,3.63671e-01,-1.07840e-01,1.03817e-02,-3.62586e-02,-2.13622e-02,-1.92416e-01,9.96102e-02,4.92163e-01,2.61230e-01,3.10990e-01,-3.77891e-01,-4.09209e-01,1.93768e-02,5.12728e-02,9.86021e-02,-2.09679e-02,-4.72247e-02,1.60691e-02,-2.26801e-01,1.97912e-01,-3.05119e-01,-1.10114e+00,-6.99051e-01,6.92451e-01,9.07616e-02,-1.25358e-01,-1.21457e+00,9.01509e-01,1.23434e-01,-6.42495e-02,2.79055e-01,-1.76946e-02,-1.67600e-01,6.19343e-02,2.44107e-01,3.39295e-01,-4.59756e-03,2.62090e-02,-1.50638e-01,-1.38479e-01,-1.03045e-02,1.55966e-02,-3.99825e-02,5.10857e-02,1.42638e-01,1.87024e-01,-1.46602e-01,1.84570e-01,2.30812e-01,-3.92981e-01,-1.29615e+00,3.60891e-02,-1.82674e-01,-6.24608e-02,-9.66975e-01,3.51207e-01,-2.51666e-01,-1.77853e-01,7.81457e-02,-1.99734e-01,1.65452e-01,1.58731e-01,1.90965e-02,1.45426e-01,2.47293e-01,1.47101e-03,-6.24169e-01,-2.73656e-01,-4.34439e-01,-1.83868e-01,1.30134e-01,8.35346e-02,8.88230e-02,-2.02173e-02,5.91615e-02,2.84205e-01,-5.50182e-01,-5.50244e-01,-8.41770e-01,2.89021e-01,-2.25579e-01,-4.49712e-01,-5.21813e-01,3.37677e-01,2.40099e-02,2.36781e-01,-6.38088e-02,-7.34463e-02,1.84223e-01,6.54267e-02,1.00056e-01,2.81928e-01,-2.73975e-02,-1.61154e-01,-2.29884e-01,-2.16093e-01,-1.08309e-01,2.17577e-02,2.93890e-02,2.07694e-01,8.77741e-02,1.09727e-01,-1.34423e-01,7.10535e-01,3.05227e-03,4.22208e-02,-4.77328e-01,2.80584e-01,-1.84582e-01,-2.89104e-01,2.37721e-01,-2.79641e-01,1.42605e-01,1.51069e-01,-3.45116e-02,1.69677e-01,-6.13012e-03,1.93270e-01,1.34346e-01,3.68577e-01,2.61586e-02,-4.27268e-01,-1.18675e-01,-3.27159e-01,-3.67511e-01,5.64549e-02,8.43049e-02,1.06192e-02,4.52420e-02,-3.41452e-03,-6.73027e-02,3.98491e-01,1.92234e-01,-4.01232e-01,-1.01787e+00,-5.52675e-01,6.98457e-01,2.61564e-01,3.90992e-01,8.01613e-01,-2.12803e-01,1.40017e-01,1.64641e-01,-2.61821e-02,2.04255e-01,2.60673e-01,7.74114e-02,7.96659e-02,2.83745e-02,9.75855e-02,-2.02518e-01,-3.88596e-01,3.78476e-02,-6.61086e-02,5.27138e-01,2.27703e-01,-1.24577e-02,1.05990e-01,4.81307e-02,2.61786e-01,4.42362e-01,4.67732e-01,-9.78689e-01,-1.15884e+00,4.19984e-01,-9.16551e-03,3.18196e-01,3.00778e-01,3.73240e-01,-6.06017e-01,-3.43467e-01,1.47171e-02,1.05635e-01,1.15154e-02,-8.90633e-02,1.51872e-01,-2.89182e-01,1.25756e-01,-4.31421e-01,-2.51175e-01,1.44091e-01,2.35279e-01,4.70605e-01,4.15079e-01,1.77828e-01,3.13547e-01,4.42894e-02,5.95036e-02,3.05243e-01,4.36151e-01,-6.66176e-01,-1.39710e-01,3.30474e-01,7.04118e-02,-5.44927e-02,1.75982e-02,1.22739e-01,1.01115e-01,7.69214e-02,-1.38268e-01,1.53804e-04,-9.78863e-02,1.34736e-01,5.08419e-02,2.28819e-01,-1.83105e-01,-7.94831e-01,1.71920e-01,1.80007e-01,5.05939e-01,1.34779e-01,5.21496e-03,-9.52385e-02,5.18992e-02,1.45208e-01,-9.69368e-03,3.39453e-01,3.68991e-01,-8.92457e-03,5.90518e-01,-5.16715e-02,-2.12102e-02,7.78692e-01,-4.57260e-02,4.22456e-01,2.58093e-01,9.19710e-02,3.91238e-01,1.23615e-01,2.68338e-01,1.06660e-02,-3.55792e-01,-1.52693e-03,-5.44384e-01,-1.05719e+00,1.12724e-01,2.87927e-01,5.89303e-01,-2.62883e-01,-3.12200e-03,6.92338e-02,-2.48389e-01,2.00272e-01,-5.00624e-02,2.61340e-01,5.54210e-01,-4.66504e-01,-1.24368e+00,-3.35195e-01,-8.67150e-02,-4.50846e-01,2.74965e-01,4.83413e-01,-1.03711e-01,-4.62907e-01,-3.87487e-01,-4.82722e-01,-3.71974e-01,-4.31655e-01,-3.85028e-01,-4.72705e-01,-9.30083e-01,-1.04668e+00,6.23184e-02,4.11689e-01,4.30889e-01,2.97779e-01,8.92642e-02,3.46283e-01,-2.75840e-01,-2.48123e-01,1.02974e-01,4.86933e-01,6.95965e-01,2.22907e-01,-1.64680e+00,-1.81973e-01,-2.24963e-03,-1.05431e+00,2.91723e-01,5.13850e-01,3.87380e-01,-5.15434e-02,-3.67635e-01,-4.19853e-01,-5.96272e-01,-1.05639e+00,-7.36681e-01,-9.59234e-01,-6.02869e-01,-3.71155e-02,2.24845e-01,1.79977e-01,1.84780e-01,1.30954e-02,8.10212e-02,3.45445e-01,-4.25361e-02,4.93500e-01,2.47690e-01,5.46511e-01,3.75625e-01,8.25236e-02,-1.09269e+00,-4.19301e-01,-3.89977e-02,-1.27248e-01,-2.28544e-01,-1.81182e-01,-2.25672e-01,-3.93219e-01,-4.13698e-02,-6.89325e-01,-4.47088e-01,-1.78685e-01,-1.47079e-01,9.31232e-02,-5.15652e-02,1.93610e-01,2.96593e-01,1.08831e-01,1.76731e-01,7.31370e-02,4.99299e-01,4.78178e-01,4.09486e-01,1.76289e-01,-1.87842e-01,8.78323e-01,2.63271e-01,7.29775e-01,3.95294e-01,-4.98706e-01,-2.04544e-02,-2.85677e-02,-2.70315e-01,3.72888e-01,-4.47622e-01,3.71950e-01,7.28706e-02,-3.97862e-01,1.07732e-01,-1.75149e-01,1.76386e-01,-1.27286e-01,4.23373e-01,1.75204e-02,2.21969e-01,3.36335e-01,3.67516e-01,3.04567e-01,4.59742e-01,5.17020e-01,7.27169e-02,-7.97938e-03,-1.48147e-01,-1.15076e-01,5.76733e-01,6.59181e-01,1.31553e-01,4.94502e-02,-7.90457e-02,-7.55747e-02,-8.82705e-02,-3.00967e-02,-1.15367e+00,-3.17045e-01,4.07996e-01,-4.60726e-01,1.41970e-01,3.42668e-01,2.17974e-01,2.99206e-01,4.24767e-01,1.03034e-01,7.55877e-02,3.17355e-01,2.95476e-01,8.39094e-01,4.67016e-01,3.52116e-01,1.74643e-01,1.09168e-01,1.08581e-01,-3.02457e-01,-6.69744e-01,-8.97219e-01,-9.43036e-01,-3.09496e-03,-4.14497e-02,8.22800e-02,9.67583e-01,7.65690e-01,-7.48495e-01,-5.74066e-01,-1.53792e+00,-1.12977e+00,-5.38091e-01,-5.89992e-03,-1.93132e-01,-4.26914e-02,4.71791e-02,1.17467e-01,2.63614e-01,5.85352e-01,4.76562e-01,2.97224e-01,9.33207e-01,1.39278e-01,-6.16294e-01,-6.46205e-01,-5.34622e-01,-1.93713e-01,-4.72169e-01,-3.14336e-01,-1.03153e+00,-4.85875e-02,4.84760e-02,-7.73498e-02,-3.02631e-02,-4.30896e-02,2.83119e-02,4.21356e-01,1.28113e+00,4.56040e-01,3.81690e-01,5.83204e-01,-2.30747e-01,2.01625e-01,-1.32675e-01,-2.57290e-01,-7.92910e-02,7.00565e-01,-1.25688e-02,8.02754e-02,1.35021e-01,4.62843e-01,2.37101e-01,1.72811e-01,2.22427e-01,5.53955e-01,4.01394e-01,4.12104e-02,5.58189e-02,-4.10817e-02,-6.20165e-02,3.01972e-02,-4.63577e-02,-7.97801e-02,-2.81955e-02,-3.05223e-02,-7.43750e-01,-5.84376e-01,-4.93145e-01,4.24699e-01,-1.94790e-01,9.98951e-02,2.34333e-01,2.18597e-01,2.80457e-01,3.93755e-01,-2.77059e-01,1.05702e+00,6.66457e-01,5.61590e-01,2.39115e-01,5.25345e-01,7.54361e-01,5.25218e-01,1.20282e-02,-9.64940e-04,1.43087e-02,-7.65341e-02,
5.73601e-02,-3.41624e-02,-1.55204e-02,4.68983e-02,-7.02576e-02,2.70974e-02,-1.44236e-02,3.67490e-02,7.07476e-02,-4.84885e-02,-7.21781e-02,-2.20681e-02,3.62338e-01,9.07205e-01,7.35468e-01,2.54598e-01,2.80574e-02,-2.92903e-02,-6.75537e-02,-6.49810e-02,2.87405e-02,-2.53750e-02,-3.51654e-02,-4.59096e-02,2.32377e-02,5.44215e-02,5.96951e-02,-2.37199e-02,4.45316e-02,8.32428e-02,5.13550e-02,-4.72551e-02,6.47250e-02,7.11088e-02,7.04874e-02,8.83327e-02,8.02012e-01,7.87188e-01,1.55601e+00,1.69758e+00,1.49837e+00,1.59744e+00,1.14569e-01,1.75725e+00,1.07622e+00,8.92695e-01,1.14365e+00,1.54980e+00,1.05641e+00,7.28500e-01,5.86959e-01,5.43370e-01,8.10665e-02,7.30268e-02,-6.41292e-02,-3.63012e-02,2.89488e-02,-4.50695e-02,8.74148e-02,1.26115e+00,1.31323e+00,-1.26063e-01,1.00769e+00,1.58310e+00,1.33784e+00,1.26563e+00,-5.18547e-01,-5.43440e-01,1.28385e-01,-4.81825e-01,-8.59008e-01,-4.68983e-01,5.10199e-01,2.18080e-01,-5.40822e-01,-7.01017e-01,1.02460e-01,8.06584e-01,5.82152e-01,-1.54602e-01,1.33965e+00,4.97865e-01,-7.56123e-02,4.10388e-02,-7.49209e-02,8.43923e-02,1.46908e-01,1.43024e+00,8.57990e-01,-3.17985e-01,1.71278e-01,2.82850e-01,6.52572e-02,2.59106e-01,-2.00384e-01,2.18816e-02,-9.86597e-02,1.04268e+00,2.73875e-01,-3.80063e-01,-3.66913e-02,-1.04664e-01,-4.24662e-01,-2.92036e-01,-7.19860e-01,-4.96704e-01,-1.90370e-01,5.11846e-01,9.91080e-01,-4.52878e-01,-4.38932e-01,-5.25072e-02,6.08146e-04,2.11935e-02,-3.11672e-01,1.38921e+00,-9.42901e-01,-1.44241e+00,6.32375e-01,-6.17484e-01,-6.23850e-01,1.84007e-01,1.76404e-02,1.93905e-01,-2.78471e-01,-1.86743e-01,2.89745e-01,-3.61391e-02,-1.78670e-01,1.66547e-01,5.34579e-02,-2.71661e-01,-8.99941e-02,9.65342e-02,1.21259e-01,4.20909e-01,-8.44948e-01,-3.62401e-01,-7.94360e-01,1.15923e+00,6.11546e-02,-2.15499e-02,1.58623e+00,1.01396e+00,-1.13615e+00,-1.34281e+00,-8.64823e-02,9.32049e-02,-5.61005e-02,-8.43564e-02,3.79927e-01,3.09097e-01,-6.90153e-02,3.21038e-01,2.42153e-01,-2.28705e-01,-1.89727e-02,2.39518e-01,2.02705e-01,4.05630e-02,-3.35395e-01,2.65753e-02,-2.39140e-01,-2.82586e-01,-5.54930e-01,-6.81951e-01,5.67815e-02,9.17551e-01,-5.67689e-02,1.34414e-01,-3.66020e-01,3.34951e-01,2.51464e-01,-2.66878e-01,-2.35583e-01,3.02505e-01,1.24615e-01,-3.29849e-01,-2.00699e-01,1.17337e-01,2.41659e-02,3.05201e-01,1.20208e-01,2.85855e-01,-3.29503e-02,-6.50253e-02,-4.71009e-02,3.51781e-02,-3.54691e-02,9.77628e-02,-5.13176e-02,-4.92236e-01,-4.76823e-01,-6.48510e-01,-8.42371e-01,-3.60646e-01,4.21735e-02,3.90326e-01,6.97524e-01,5.22118e-01,-5.27381e-01,-5.08415e-01,-7.57617e-03,-2.27072e-01,-3.82097e-01,2.23202e-01,2.19912e-01,2.20527e-01,-6.77502e-03,3.11154e-02,-1.09632e-01,4.72767e-02,6.16735e-02,1.51964e-01,1.47124e-01,6.13567e-02,-3.10530e-01,1.10967e-02,-9.55242e-02,1.37642e-01,1.73767e-01,2.75502e-01,-1.48227e+00,4.44801e-01,8.22111e-01,8.99420e-01,7.91692e-01,9.18822e-01,-6.69948e-01,-3.71151e-01,-1.16150e-01,-1.51941e-01,-1.50817e-01,-5.90100e-02,-1.20744e-01,1.87671e-01,2.09165e-01,-1.58244e-01,7.91603e-02,4.74412e-02,3.58045e-01,2.70290e-01,3.51204e-02,5.83707e-02,1.42636e-01,3.58139e-01,-8.55686e-02,2.44720e-01,-9.31085e-03,-5.63977e-01,-6.10194e-01,-1.01942e-01,9.06289e-03,-2.12587e-01,8.12193e-01,4.31483e-01,3.92165e-02,-6.95237e-02,-4.44636e-03,-4.21519e-01,3.08193e-02,2.91446e-02,1.62780e-01,1.86836e-02,-6.34655e-02,1.85813e-01,1.27677e-01,-2.60143e-01,-7.02360e-02,2.54347e-02,9.99043e-02,3.80718e-01,6.64485e-02,-2.42842e-03,-6.16653e-01,1.98773e-01,6.32351e-01,-6.32357e-01,-5.54124e-02,9.68779e-02,3.58944e-02,-1.37649e-01,1.88569e-01,2.76331e-02,-1.51752e-01,3.25065e-01,-1.10495e-01,-7.49852e-02,2.69806e-02,3.08178e-01,-8.65341e-02,2.84342e-02,1.56018e-01,-3.82961e-01,1.32826e-01,-4.21534e-01,4.76695e-02,3.03413e-01,6.80453e-03,-7.20430e-02,-6.63979e-02,3.58664e-01,1.30943e-01,3.78597e-01,5.35747e-01,1.02455e-01,6.01137e-01,-4.04072e-01,5.70428e-02,-5.85906e-01,-3.98817e-01,-5.46284e-01,-5.02812e-01,-2.92414e-01,4.63394e-01,5.46718e-02,-2.49279e-01,2.28613e-02,-2.03211e-01,-3.27579e-02,-4.25597e-01,-1.90964e-01,-2.22234e-01,-6.61940e-01,-5.91010e-01,-4.18370e-01,-3.20909e-01,-4.75407e-02,-3.90133e-01,1.44484e-01,-1.08649e-01,-9.79011e-02,-3.95436e-01,-6.61284e-01,-1.59880e-03,-5.76514e-01,-6.70136e-02,1.13695e+00,-3.41014e-01,7.26469e-02,-2.56622e-01,-2.63110e-01,4.56497e-01,-1.64574e-01,-1.93871e-02,2.08539e-01,-2.74791e-01,1.38704e-01,1.81603e-01,-7.81005e-02,-4.49738e-01,-2.51506e-01,-5.65899e-01,-3.11363e-01,-4.24867e-01,-1.37312e-01,-1.19952e-01,-3.06950e-01,-5.50721e-01,-4.66571e-01,-3.49626e-01,-1.32548e+00,-1.08613e+00,-6.87743e-01,-4.14115e-02,1.13338e+00,7.73739e-01,3.98074e-01,3.48416e-01,-4.46413e-01,2.50033e-01,2.43183e-01,2.69720e-01,1.82523e-01,2.50304e-01,2.95617e-02,1.58965e-02,-3.11965e-01,-2.89389e-01,-3.89385e-01,-7.51954e-01,-3.63582e-01,-1.80774e-01,-1.91925e-01,-4.24644e-01,1.54343e-02,2.93055e-01,4.67646e-01,3.28387e-01,-9.25679e-02,-1.28480e+00,1.21574e-01,6.63899e-01,-5.89384e-01,-5.66488e-01,-2.00085e-01,1.61852e-02,4.38491e-01,1.08785e-01,3.53125e-01,8.64193e-03,8.33118e-02,3.42251e-01,1.16857e-01,1.37460e-01,-1.59457e-01,-7.82021e-01,-3.84558e-01,-3.16336e-01,-1.34723e-01,-2.30166e-01,-5.25704e-02,4.78809e-02,2.13481e-01,6.43610e-02,1.21164e-02,4.27568e-01,-3.59650e-01,-1.00328e+00,6.91021e-01,6.49587e-01,-2.31844e-02,-1.24886e+00,-1.03808e+00,2.95091e-01,6.51378e-01,-4.02265e-01,4.21831e-01,3.99540e-01,5.40310e-01,2.91701e-01,4.32310e-02,1.68400e-01,-4.49011e-01,-1.55896e-01,-6.65533e-01,4.51309e-02,-2.74881e-01,-1.84159e-01,-4.05062e-03,-8.91646e-02,1.15740e-01,-2.26207e-01,2.70578e-01,8.93370e-01,-2.14972e-01,-7.44488e-01,1.59580e+00,2.81163e-02,-4.67866e-02,-1.12493e+00,-1.37604e+00,3.06636e-03,3.75520e-01,2.58176e-01,3.68670e-01,4.38575e-01,5.27794e-01,3.16037e-01,2.67794e-01,-1.25028e-01,-6.09957e-01,-6.05232e-01,-4.77278e-01,-2.66101e-01,-4.91419e-02,-1.39791e-01,1.22262e-01,1.05061e-01,2.86464e-01,-1.45012e-01,-3.42229e-02,-6.22480e-01,-1.54452e-02,-4.56847e-01,5.36617e-01,-2.07282e-02,-5.53308e-01,-6.00100e-01,-3.79172e-01,1.07395e-01,3.01647e-01,3.35807e-01,2.41915e-01,-5.98414e-02,2.49733e-01,4.48277e-01,2.90553e-01,-2.41485e-01,-4.99466e-01,-2.06282e-01,-1.31455e-01,2.39462e-01,-5.05812e-02,-9.74158e-02,-3.64665e-02,1.68729e-01,-1.14944e-01,-1.34666e-02,-2.00590e-01,-3.07260e-01,2.52519e-01,-1.00706e+00,2.50944e-02,2.97086e-02,-4.82685e-01,-5.46542e-01,-9.38799e-01,5.78393e-01,1.13612e-01,1.94339e-01,2.25013e-02,1.23887e-01,2.74181e-01,1.98401e-01,5.10786e-02,-2.92229e-01,-2.57132e-01,1.55761e-01,4.09285e-03,2.85497e-01,1.02985e-01,1.94812e-01,1.03407e-01,-1.85397e-01,-1.08165e-02,1.43687e-01,1.94118e-01,3.24893e-01,2.10076e-01,7.64486e-01,1.55554e+00,4.09017e-02,1.13779e+00,2.16769e-01,-1.46476e-01,1.61194e-01,-2.68847e-01,2.64403e-01,2.91990e-01,3.13010e-01,1.18841e-01,2.19515e-02,2.33807e-01,-1.09158e-02,-7.38733e-02,-6.86612e-02,-2.36536e-01,-1.90496e-02,4.79134e-02,-1.81007e-01,1.34340e-01,1.43965e-01,2.38734e-01,7.04055e-01,-1.17068e-01,2.30671e-01,-1.00114e+00,7.00879e-01,6.76928e-01,5.56660e-02,1.18335e+00,7.64222e-01,1.12691e-01,6.60774e-01,2.65833e-01,2.43174e-01,2.01359e-01,1.31525e-01,2.16844e-01,3.22989e-01,1.39707e-01,5.45887e-01,-5.99705e-02,-1.95911e-02,-9.16963e-02,-1.78823e-01,-2.02372e-01,-1.07977e-01,4.09370e-03,1.92069e-01,3.71651e-01,4.59078e-01,2.71484e-01,-6.68491e-01,-9.29818e-01,5.72550e-01,1.83053e-01,-1.69218e-02,7.26870e-01,4.94190e-01,9.88152e-01,1.62356e-01,-6.20896e-02,-3.18573e-02,2.37825e-01,6.00946e-02,9.53761e-02,3.29415e-01,2.65597e-01,1.05090e-01,3.53821e-02,1.17701e-01,1.72201e-01,1.47049e-01,-2.33783e-01,-2.51190e-01,-1.96985e-01,2.07679e-01,9.84069e-02,6.89256e-01,3.27297e-01,-6.19408e-01,-4.86815e-01,4.50778e-01,8.37910e-01,-6.75962e-02,-6.70006e-02,6.96974e-01,1.41122e+00,-8.39124e-01,5.79595e-01,1.57958e-01,2.04991e-01,6.33800e-02,2.49960e-01,4.06806e-02,8.84312e-02,2.40061e-01,3.47802e-01,-7.82837e-02,7.33338e-02,1.76273e-01,-3.15001e-03,-1.79920e-02,-2.37549e-01,-1.71743e-01,-2.27643e-02,6.26634e-02,-7.36711e-02,2.41964e-01,-4.12579e-01,-2.10414e-01,8.88517e-01,-5.26930e-02,5.59363e-02,3.23511e-01,3.20953e-01,-2.14486e-01,1.14476e-01,2.19687e-01,1.85321e-01,2.51250e-01,1.08510e-01,7.27960e-04,5.28370e-02,2.17355e-01,1.33703e-01,-7.91384e-03,-4.29884e-02,2.21431e-01,7.43357e-03,-1.50965e-01,-1.49485e-01,-3.97468e-01,-8.22440e-01,1.68548e-01,-3.11348e-03,2.43993e-01,3.19219e-01,-4.33393e-01,-3.61283e-03,7.41987e-02,-1.28029e-02,-2.48158e-01,-4.94295e-01,5.80334e-01,2.39197e-01,-2.27615e-01,-1.56139e-01,1.55869e-01,1.31749e-01,-1.20201e-01,2.65978e-02,4.05089e-01,7.79359e-02,-4.08705e-01,3.68262e-01,1.37308e-01,2.55041e-02,6.02391e-01,2.56213e-02,-5.02022e-01,-3.68154e-01,-1.85090e-01,-4.54792e-01,3.72624e-01,5.40270e-01,6.71039e-01,7.47343e-02,-1.73831e-03,6.68525e-02,-4.59132e-01,-7.23155e-02,5.08855e-01,-9.74324e-01,-9.14739e-01,-1.25222e+00,-1.71895e+00,-1.00751e+00,-8.19715e-01,-6.06688e-01,-4.93893e-01,1.21777e-01,1.84210e-01,-1.09345e-01,-2.80223e-02,-5.33663e-02,4.59960e-02,-6.93852e-01,-1.38727e+00,-9.87468e-01,-6.99805e-01,-6.75219e-01,-2.87764e-01,6.03056e-01,6.34060e-01,-2.11897e-02,-7.33977e-02,2.51620e-02,4.91313e-02,2.02524e-02,6.94256e-02,-2.65754e-01,-1.13258e+00,-1.09277e+00,-1.27702e+00,-6.11754e-01,-1.38630e-01,-1.37759e-01,2.54507e-01,-7.07445e-01,-1.14138e+00,-1.09389e+00,-7.98611e-01,-1.08824e+00,-3.86176e-01,1.44513e-01,-1.19420e+00,-1.35339e+00,-5.56820e-01,-4.63883e-01,-2.83723e-01,-9.92660e-02,6.49226e-02,7.21329e-02,6.44340e-03,3.60767e-03,7.76222e-03,6.76549e-02,-1.22393e-01,1.89628e-02,-3.94878e-02,-2.67876e-02,2.90412e-01,3.30031e-01,3.66873e-01,3.28230e-01,3.05959e-01,-5.69144e-01,-1.57073e+00,-1.32901e+00,-1.14457e+00,-5.82437e-01,-2.18929e-01,2.95771e-01,-1.55706e-01,-7.16227e-01,-6.24336e-01,-5.64976e-01,-3.59420e-02,1.55109e-02,6.64154e-02,-5.99869e-02,
-8.56297e-02,5.07698e-02,-3.80073e-02,7.02896e-02,-3.30848e-02,5.02280e-02,3.02433e-02,-3.23947e-02,-2.96972e-02,7.30622e-02,-7.18909e-02,-3.69826e-03,3.85882e-01,1.62679e-01,-3.10838e-01,-1.17141e-01,-5.44389e-02,-3.19656e-02,-5.78869e-02,-8.21606e-02,7.88925e-02,-4.08434e-02,-1.32954e-02,2.63111e-02,-8.37611e-02,-1.28366e-02,4.55149e-02,-8.03891e-02,-4.21196e-02,8.47885e-02,-8.32948e-02,7.75281e-02,3.13322e-01,6.76109e-01,4.94525e-01,1.08689e+00,1.01343e+00,1.04414e+00,1.39302e+00,1.43835e+00,1.92147e+00,1.20065e+00,-4.27214e-01,3.95653e-01,-1.50775e-01,2.84109e-01,1.56313e+00,2.41941e+00,1.80910e+00,1.58753e+00,1.36561e+00,1.21765e+00,-1.15600e-02,-3.83833e-02,-1.23767e-02,3.59778e-02,-4.39612e-02,5.59517e-02,2.71586e-01,1.38186e-01,1.00216e+00,1.03967e+00,4.43996e-01,1.55231e+00,7.82789e-01,-8.05334e-01,-2.69241e-01,9.81865e-01,1.68557e-01,-4.50757e-01,8.34431e-02,3.52878e-01,1.53018e-01,5.51373e-01,3.93251e-01,6.38590e-01,6.26508e-01,8.38797e-01,1.06971e+00,1.80454e-02,1.43275e+00,7.12998e-01,5.17380e-02,4.16487e-06,4.51020e-02,-5.19148e-02,-7.76929e-01,-5.03795e-01,2.97427e-01,1.02980e+00,9.28411e-01,9.23052e-01,8.43651e-01,6.20659e-01,1.01990e-01,-8.31792e-02,-3.69451e-01,-1.73757e-01,1.61940e-02,-8.84272e-02,1.78320e-01,1.08419e-01,3.95836e-01,6.60620e-01,-1.65610e-01,8.61439e-01,8.37367e-01,7.46333e-01,2.81163e-01,-1.43588e+00,-9.61925e-01,-4.57015e-02,-1.63358e-02,-7.31264e-02,-6.68859e-01,-4.88247e-01,4.30641e-01,3.75195e-01,-2.99193e-01,-2.03858e-01,-1.02362e+00,-1.10657e+00,-5.65923e-01,-3.47823e-01,-2.43288e-01,-7.01612e-02,-4.12941e-01,-6.69475e-02,2.00161e-02,2.32938e-01,-1.40697e-01,1.41958e-01,2.62108e-02,1.62247e-01,1.21521e-01,1.14585e-01,-3.56876e-01,-3.50470e-01,-8.89480e-01,5.45139e-01,7.43303e-02,6.20987e-02,-3.51500e-01,-4.02264e-01,-1.07428e-01,3.30749e-01,-2.40886e-01,-4.79343e-01,-7.58563e-02,-2.19024e-01,7.27799e-02,-1.12826e-01,1.14501e-01,3.18923e-02,-4.40955e-03,-1.15427e-01,6.08217e-02,3.44551e-01,3.32613e-02,1.45702e-01,2.92201e-01,3.69211e-01,1.32758e-01,5.55545e-01,1.74128e-01,-1.84851e-01,2.81896e-01,2.99481e-01,-6.25496e-03,4.23226e-01,8.68897e-01,-4.86457e-01,-3.03361e-01,8.19770e-01,-7.09773e-01,-1.22324e+00,-2.89216e-01,-4.46555e-01,-1.51286e-01,-3.24957e-01,-1.59202e-01,1.46977e-02,2.90443e-01,2.49719e-01,5.29774e-03,2.50848e-01,3.74381e-02,1.61791e-01,2.18742e-01,-5.90402e-02,1.03711e-01,1.64392e-01,6.50669e-01,6.59981e-01,-4.15163e-01,7.43781e-01,7.04731e-02,1.15564e+00,5.28717e-01,-4.86430e-01,-3.76934e-01,2.89415e-01,-1.10409e+00,-1.23835e+00,-5.28537e-01,-2.51055e-02,-1.62044e-03,-1.36141e-01,-2.51255e-01,-2.18491e-01,-1.64141e-01,2.81429e-01,1.97337e-01,3.15308e-01,2.10797e-01,4.87036e-02,2.19308e-01,2.32233e-01,2.71378e-01,3.05025e-02,1.72733e-01,-9.32245e-01,-3.57431e-01,9.30739e-01,-4.87862e-02,4.70071e-01,-4.78529e-01,-1.02218e+00,-1.55226e-01,5.89756e-01,1.79008e-01,-3.74494e-01,-4.95051e-01,-1.08267e-01,2.40908e-01,1.86249e-01,-2.84822e-02,-5.71476e-02,-3.44445e-02,-4.23014e-02,1.88343e-02,-1.47457e-01,-2.84796e-01,-5.84792e-02,1.56101e-02,3.28007e-01,1.75712e-01,-2.01229e-01,-5.78053e-01,-1.37348e+00,-1.91279e-02,1.13009e+00,1.10133e-01,1.61776e-01,-2.81411e-01,-1.15039e+00,1.80662e-01,4.57957e-02,-1.22417e+00,-8.99853e-01,-1.77340e-01,-1.42045e-01,9.99198e-02,2.95799e-01,4.95809e-01,-1.16266e-01,-1.77975e-01,-6.46550e-01,-6.78202e-01,-8.10640e-01,-8.94707e-01,-7.68684e-01,-9.98427e-01,-5.78840e-01,-3.02305e-01,3.19829e-01,4.80462e-01,-7.81188e-01,-3.92723e-01,-6.85541e-01,5.78601e-02,1.69660e-01,3.69039e-01,-1.76615e-01,8.01176e-02,-3.90078e-01,-8.33444e-01,9.53233e-02,-2.23782e-01,3.13704e-01,2.94062e-01,1.92403e-01,4.12615e-01,-3.07691e-02,-5.19624e-01,-6.44875e-01,-4.79300e-01,-4.94889e-01,-2.28782e-01,-9.15895e-01,-7.86795e-01,-4.34886e-01,-4.12946e-01,-3.44348e-01,-1.06531e+00,-1.33454e+00,1.34481e-01,-7.73270e-01,-3.23164e-02,9.65956e-02,-1.10846e+00,-9.23975e-01,-1.79834e-01,-8.89281e-01,3.55947e-02,3.34142e-01,-1.15650e-01,1.27783e-02,1.25586e-01,-1.00646e-01,2.58513e-01,2.71454e-01,3.28444e-02,-3.27740e-01,2.59406e-01,6.39101e-02,4.06203e-02,4.00922e-01,-3.15017e-01,-5.52490e-01,-9.27944e-01,-1.18633e+00,-1.13836e+00,-2.21356e-01,9.17726e-01,-1.16720e+00,-7.93164e-02,-1.68060e-01,-1.08828e+00,-7.12001e-01,-8.31976e-01,-1.05288e+00,-5.49880e-02,3.40645e-02,9.28473e-02,8.11351e-02,-3.27895e-02,1.28965e-01,-2.11500e-01,3.12751e-01,-8.57680e-03,-1.00095e-01,3.18890e-02,7.65091e-02,6.03247e-02,1.23633e-01,5.46872e-01,1.06422e-01,-2.25297e-01,-3.19450e-01,-6.85550e-04,-8.25241e-01,-2.90970e-01,-1.26744e+00,-6.57677e-03,-1.16118e-01,-9.82391e-01,-8.40597e-01,-5.47440e-01,-5.71833e-01,-2.10909e-01,4.12401e-01,2.50416e-02,-1.41426e-01,1.93596e-02,-7.16992e-02,-2.15274e-01,3.44843e-01,-3.10925e-01,2.63902e-01,-2.53438e-02,1.02860e-01,9.52959e-02,7.15291e-02,1.03874e-01,2.03990e-02,1.23899e+00,1.58799e-01,-1.06669e+00,-1.16028e+00,-8.10887e-01,-9.32787e-01,1.10492e+00,-2.88990e-01,-2.46370e-01,1.44614e-01,-7.06386e-01,1.92449e-01,-9.31941e-02,-3.81470e-02,-1.16161e-01,-3.18424e-01,2.31928e-01,1.55988e-02,2.69628e-01,2.10780e-01,-7.08872e-02,1.84919e-01,1.72311e-01,5.67688e-03,-2.40562e-01,2.78181e-02,2.16963e-01,5.84982e-02,4.55276e-01,-4.68186e-01,-6.19933e-01,-3.59528e-01,-1.54530e+00,-1.18666e+00,9.39010e-01,-2.32874e-01,1.79163e-01,4.10248e-02,-3.24605e-01,-5.60829e-01,4.37280e-02,6.02216e-02,-5.30064e-02,-8.55280e-02,3.17547e-01,-1.19895e-01,2.67910e-01,-4.32134e-01,-1.12840e-01,-4.70194e-02,-1.96205e-02,7.40816e-02,2.41325e-01,6.68843e-02,3.02295e-02,3.74783e-01,1.49371e-01,1.70232e-01,-7.18487e-01,-5.56124e-01,-1.96701e+00,-7.02012e-01,-1.67446e-01,-3.34716e-01,-6.55396e-01,-2.84598e-01,3.63432e-01,-3.47280e-01,-3.43894e-01,-2.00055e-01,3.27390e-01,2.58465e-01,5.00448e-01,4.36941e-01,4.15582e-01,-1.43625e-01,2.04944e-02,4.43797e-01,1.41548e-01,1.34720e-01,-5.72293e-03,4.34318e-02,-3.05952e-02,-3.82339e-01,9.00235e-02,-1.94469e-01,-1.14650e-01,-5.87399e-01,-1.45256e+00,-6.93936e-01,-4.36192e-02,-3.76959e-01,-9.44127e-01,5.96817e-01,-4.43155e-01,-8.70816e-01,-2.47859e-01,-4.52853e-02,7.52496e-02,1.24950e-01,3.44131e-01,3.50749e-01,3.20011e-01,-8.16040e-02,-2.98748e-01,-9.51664e-03,-4.40178e-02,-1.19342e-01,4.15572e-01,1.43622e-01,3.38079e-01,4.00917e-01,-1.38138e-02,3.16666e-02,-3.22643e-01,-7.01068e-01,-9.31692e-01,-3.81898e-01,2.89071e-01,-2.68323e-01,-1.62845e+00,2.47682e-01,-3.93491e-01,-2.55394e-01,7.52148e-02,2.50207e-01,3.34057e-02,-1.24585e-02,1.89086e-04,1.69109e-01,3.40121e-01,-3.88031e-01,-3.41777e-01,2.10706e-01,1.34201e-01,7.52832e-02,1.73931e-01,-1.17471e-01,6.28266e-03,-6.90041e-03,-3.03877e-01,1.07220e-01,-1.52449e+00,-2.51523e-01,-5.79884e-01,-5.02477e-01,-7.10103e-02,-6.42741e-01,7.72029e-01,2.48565e-01,-2.95511e-01,-1.88877e-01,-2.30879e-01,-2.73353e-01,3.07079e-02,-3.34827e-03,3.09137e-02,1.88424e-01,-1.06058e-01,-3.32492e-01,-2.94440e-01,2.95707e-01,2.69950e-01,1.95156e-01,2.82954e-01,3.72143e-02,1.06634e-01,-4.18169e-02,-9.19916e-02,3.21192e-01,-9.39134e-01,-5.49343e-03,4.37504e-01,-6.14953e-01,-5.92962e-02,2.96532e-01,7.92749e-01,6.40826e-01,-2.17611e-01,8.86224e-03,-3.04294e-01,-8.22841e-02,9.15392e-02,-1.04063e-01,-5.51825e-02,-6.23080e-02,-1.73724e-01,-2.42390e-01,-8.52809e-02,2.49895e-01,-1.89078e-01,6.96753e-02,9.21801e-02,2.47403e-01,1.33482e-01,5.83304e-01,-2.14384e-01,-3.35798e-01,-9.71773e-01,1.04370e-01,4.34738e-01,2.75721e-01,-8.41656e-02,-3.21200e-01,-4.49996e-01,4.19942e-01,4.87703e-02,-1.55194e-02,-1.44794e-01,2.67728e-01,-1.06360e-01,6.58419e-02,-6.95680e-03,-8.41949e-03,2.11999e-01,2.16826e-01,-4.04918e-03,7.97402e-02,-2.35422e-01,2.06133e-02,8.35777e-03,9.97516e-02,2.10507e-01,-2.61421e-01,7.72387e-02,-2.67437e-01,-1.65769e+00,3.29383e-01,4.33645e-01,7.33831e-01,-1.04992e-01,-1.05017e-01,-7.67302e-01,1.59070e-01,-1.58084e-01,-3.27956e-01,-8.65674e-02,9.70136e-02,3.48211e-02,-7.56110e-03,2.64196e-01,3.10892e-01,3.36831e-01,3.11373e-01,8.09081e-02,2.83028e-01,2.64626e-02,-1.41787e-01,-1.09034e-01,3.78039e-01,-3.53487e-01,-1.65770e+00,-6.37390e-01,-9.84075e-01,-1.87602e+00,2.06249e-01,4.11143e-01,9.04437e-01,-2.05026e-02,2.99332e-02,-1.22267e+00,-1.27864e-01,-4.08339e-01,1.72190e-01,3.37493e-01,-1.66397e-01,1.39165e-01,-6.46621e-02,2.43617e-01,2.04100e-02,-1.70148e-01,1.98060e-01,1.61855e-01,1.08387e-01,-4.09467e-02,-4.28732e-02,2.64210e-01,-2.16442e-01,-3.73278e-01,-3.39274e-01,5.33824e-01,4.65634e-01,-1.47557e+00,-1.14299e+00,-1.31901e+00,-5.70198e-02,4.78048e-02,2.55010e-02,-1.20249e+00,1.61511e-01,3.42582e-01,9.45897e-02,5.91692e-01,3.84321e-01,4.80194e-01,2.16345e-01,3.87229e-01,1.71777e-01,1.35369e-01,5.73489e-01,1.18147e-01,1.33170e-01,3.68915e-01,-4.49949e-01,4.78372e-01,-8.55354e-01,2.70949e-01,-2.39964e-01,1.07219e-01,4.07361e-01,1.47988e-01,2.49368e-01,1.25474e-01,-2.72502e-02,5.67186e-02,2.83254e-03,-4.24350e-01,-7.60449e-01,-2.66384e-01,-2.53286e-01,1.21640e+00,2.42168e-01,2.99327e-01,-8.93785e-02,8.12674e-01,7.04209e-01,5.56732e-01,-6.70207e-02,4.51393e-01,6.60337e-01,3.95573e-01,6.56966e-01,3.75651e-01,8.84427e-01,8.43338e-01,2.86642e-01,1.39572e+00,-5.99819e-01,-7.80698e-01,3.56157e-02,5.63077e-02,7.92342e-02,-9.08435e-03,-8.29031e-02,-4.48340e-02,9.73189e-01,1.34929e+00,-9.73860e-02,-3.49793e-01,-2.34921e-01,1.01390e-01,4.46563e-01,9.59235e-01,1.07547e+00,8.91182e-01,6.36302e-01,1.01583e+00,2.52540e-01,6.58490e-01,3.92323e-01,1.55961e-01,-2.09928e-02,-1.07645e-02,-1.98032e-01,1.12428e-02,1.50500e+00,3.52881e-01,-5.55977e-02,-3.69962e-02,-2.47983e-02,1.13216e-02,6.00371e-02,-4.30753e-02,1.67015e-02,7.61237e-02,7.00754e-02,3.48783e-01,2.60620e-01,1.47153e-01,-7.01746e-01,6.06539e-01,5.88274e-01,1.98152e-01,1.18334e+00,1.54868e+00,7.94481e-01,8.24210e-01,3.22847e-01,6.19750e-01,1.55223e-01,-9.00383e-01,-9.87834e-01,-9.31130e-01,4.11275e-02,4.06387e-02,-6.71188e-02,-6.13440e-03,-6.02417e-02,
8.25611e-02,6.69909e-02,2.27131e-02,1.17134e-02,7.49101e-02,-5.75727e-02,4.33641e-02,8.73910e-03,-3.39114e-02,9.55296e-03,4.98919e-02,-6.46309e-02,9.51658e-02,7.83372e-02,1.14599e-01,-8.70940e-04,8.15234e-02,1.18281e-02,5.23238e-02,-2.94503e-02,-2.91678e-02,-2.57254e-02,-3.02727e-02,-8.10469e-02,-8.24740e-02,5.35432e-02,-6.11161e-02,-6.80720e-02,8.29573e-02,-5.16249e-02,-4.18729e-02,2.11315e-02,-5.52098e-02,2.27999e-02,8.95412e-02,2.74890e-01,2.86046e-01,9.03620e-01,8.63424e-01,8.27125e-01,5.92216e-01,5.42805e-01,1.73825e-01,4.72256e-01,7.32029e-01,5.66992e-01,-4.93384e-02,-1.40711e-01,-2.52605e-01,-1.18913e-01,-4.57746e-02,8.05715e-02,-4.54337e-02,2.33955e-02,3.11044e-02,7.23291e-02,8.64671e-02,-7.24801e-02,-3.33654e-02,-4.67173e-02,-4.53127e-02,-1.96040e-01,3.88504e-01,5.90311e-01,7.96723e-01,-2.35818e-01,5.60516e-01,4.16175e-01,-2.43195e-01,-9.31751e-01,-8.37491e-01,-5.88853e-02,3.84938e-01,4.56389e-01,6.04385e-01,3.86780e-01,3.70037e-01,2.35476e-01,2.40310e-01,4.42099e-01,1.81780e-01,7.51533e-02,-7.44967e-02,-2.07287e-02,-6.94601e-02,9.72815e-03,3.52713e-02,2.56608e-01,8.93352e-01,3.51738e-01,6.92043e-01,2.49914e-01,1.12676e-01,-8.72296e-01,3.15492e-01,3.18698e-01,7.16095e-01,-4.64225e-01,-3.78976e-01,-5.36078e-02,1.44249e-01,-2.92586e-01,-4.05140e-01,-3.55990e-01,-3.41638e-03,-2.09176e-01,-8.32320e-01,-3.41412e-01,5.39082e-01,-1.55794e+00,-2.96033e-02,2.43098e-02,-4.59527e-02,3.79990e-01,4.49714e-01,8.70168e-01,4.69448e-01,5.77809e-02,-5.64645e-01,-3.78237e-01,7.55469e-01,5.28196e-01,3.81127e-01,5.46619e-01,4.48156e-01,9.28073e-02,2.62685e-01,1.78385e-01,-9.63367e-02,1.27376e-01,4.02030e-01,-2.77838e-01,-4.16486e-01,-1.11154e-01,1.55443e-01,-3.11552e-01,-1.66365e-01,-2.77098e-01,1.52348e+00,6.89010e-01,2.90236e-02,7.89334e-02,7.27297e-01,9.18167e-01,2.23205e-01,-9.05421e-02,-7.33853e-02,-2.08269e-01,-1.73189e-02,-1.28882e-01,-1.90294e-02,4.59308e-01,1.48862e-01,-1.72934e-02,1.14614e-01,9.02417e-02,3.90902e-01,1.98157e-01,3.36529e-01,2.24135e-02,2.26174e-01,-6.76096e-03,-1.96715e-01,-2.46756e-01,-5.62468e-01,-4.26648e-02,1.34092e+00,1.08773e+00,-5.79255e-02,9.40548e-01,1.12558e+00,4.77385e-01,1.04377e-01,3.13879e-01,6.48977e-01,-5.46741e-02,4.35754e-01,4.15457e-01,1.32089e-01,3.71759e-01,2.24365e-01,5.38965e-01,2.24238e-01,-7.87338e-02,2.65522e-01,1.40534e-01,1.66501e-01,-3.57725e-02,3.35044e-01,7.72158e-02,2.50744e-01,1.73476e-01,2.83455e-01,1.28769e+00,2.92528e-01,1.13710e+00,4.75211e-01,1.23342e+00,-8.24416e-02,5.52747e-01,5.35880e-02,2.88816e-01,1.25554e-01,1.50954e-01,1.32701e-01,1.32288e-01,3.46344e-03,8.28939e-02,2.96098e-01,1.69231e-01,3.17767e-01,1.55568e-01,3.22882e-01,8.79341e-02,8.93978e-02,4.11684e-02,8.94415e-02,-4.68383e-02,-2.45767e-02,1.92227e-01,4.46635e-01,1.11200e+00,4.80782e-01,1.14084e+00,6.47137e-01,-5.97902e-01,-5.80554e-01,2.03092e-01,2.06277e-01,3.06190e-02,-1.29593e-01,-1.31399e-01,2.71858e-01,2.08671e-01,4.20827e-01,1.95230e-01,1.71431e-01,9.56946e-02,4.92899e-01,2.08118e-01,2.46846e-01,4.06494e-02,2.12244e-01,4.15383e-01,3.09668e-01,2.12352e-01,-3.43692e-02,6.50681e-01,2.81517e-01,3.62382e-01,9.10095e-01,3.80325e-01,6.37008e-01,2.02549e-01,2.89512e-01,2.97309e-01,2.60471e-01,-2.93808e-01,-7.52550e-02,-5.16530e-02,1.59183e-01,1.07664e-01,-2.20074e-01,-1.97620e-02,-2.08358e-01,-2.56626e-01,-1.13220e-01,-1.75026e-01,-1.54345e-01,-3.45996e-02,-1.04591e-01,-6.68559e-02,-7.83895e-02,2.30205e-01,4.66649e-01,2.52783e-01,1.47997e+00,1.68510e+00,1.11344e+00,1.10827e+00,6.37831e-01,6.56258e-02,4.90815e-01,3.52889e-01,6.31801e-02,1.83078e-02,4.24993e-01,2.51698e-02,4.23271e-01,-3.01833e-02,-2.42748e-02,-1.91841e-01,-7.52287e-02,-3.53186e-01,-1.12949e-01,-3.22001e-01,1.98117e-01,-4.26834e-01,-3.89947e-01,-7.61556e-01,-3.23236e-01,-1.28909e-01,-3.01357e-01,1.19957e-01,8.41260e-01,9.23355e-01,1.68516e+00,6.49054e-01,8.93318e-01,1.42056e+00,4.66439e-01,6.69503e-02,-2.42063e-01,-2.14926e-01,1.38079e-01,-9.42988e-02,-6.34712e-02,-2.28797e-01,-1.93245e-01,-2.21768e-01,4.75585e-02,4.45847e-02,-2.39662e-02,-1.67060e-01,-1.46108e-01,-1.64302e-02,-2.00172e-01,-2.30384e-01,-7.27625e-01,-1.09612e+00,-1.65448e+00,-1.59877e+00,-1.84656e+00,-3.02223e-01,7.82405e-01,-1.84948e-01,7.85590e-01,5.18326e-01,3.39510e-01,2.72569e-02,-1.76710e-01,2.83904e-01,-3.46884e-01,-3.74042e-01,-1.94473e-01,-2.92183e-01,2.40005e-02,3.73043e-02,7.76876e-02,1.42943e-01,2.03405e-01,-2.20919e-01,-1.57490e-01,-3.22235e-02,-8.37421e-02,-1.06799e-01,1.44932e-01,-2.37060e-01,-9.27001e-01,-1.97436e+00,-2.89241e+00,-2.24365e+00,-6.08318e-01,-7.90671e-01,1.76391e-01,-6.69057e-02,-5.62003e-01,-1.64161e-01,-5.23558e-01,4.75016e-01,-1.43555e-01,-1.22955e-01,-3.10838e-01,1.54024e-01,-1.12264e-02,1.45653e-01,2.29567e-01,1.82894e-01,1.19924e-01,-3.00194e-01,-7.45107e-02,-1.23433e-01,-1.78029e-01,-2.55763e-01,-1.46008e-01,-3.70037e-01,-1.66795e-01,2.71207e-01,-1.04983e+00,-1.29079e+00,-1.35992e-01,-9.70036e-01,1.00255e+00,7.87095e-01,-6.38293e-01,-1.21832e-01,-2.22032e-01,-4.24011e-01,1.32458e-01,2.42657e-03,4.99346e-02,2.06891e-01,8.63589e-02,-5.73250e-02,-1.18447e-01,-1.63526e-03,1.17815e-01,-2.25479e-01,-2.38576e-01,-1.38275e-01,-2.21902e-01,-3.59819e-01,-1.65184e-01,-1.63025e-01,-2.52519e-01,3.36821e-01,4.83284e-01,7.43900e-02,-6.91423e-01,-9.64177e-01,1.03302e+00,8.17479e-01,1.10840e+00,6.25744e-01,-2.87199e-01,-3.64132e-01,9.39089e-02,-2.17498e-01,-1.05163e-01,1.17046e-01,-1.17726e-01,-1.59404e-02,2.62756e-01,-3.86053e-03,-3.52068e-01,-1.41335e-01,-1.13694e-01,-2.41198e-01,-3.00698e-01,2.72660e-02,4.68748e-03,7.18323e-02,5.59322e-02,1.95803e-01,2.15519e-01,6.86226e-01,-3.77423e-01,7.24445e-01,4.83578e-02,1.21943e+00,1.44373e+00,1.18091e+00,-1.15270e-01,-3.37517e-01,-3.85678e-01,-5.61878e-01,-5.07622e-01,-2.79133e-01,1.48802e-01,-6.82716e-02,2.53728e-01,1.69079e-01,-7.19638e-02,-2.30213e-01,-4.58568e-01,-2.28790e-01,2.90480e-02,3.65065e-01,7.97238e-02,5.25037e-02,3.25439e-01,1.27667e-01,4.26130e-01,3.34382e-01,-9.53908e-01,5.71004e-01,6.27653e-02,1.20819e+00,5.24495e-01,9.04513e-01,1.86360e-01,-3.08297e-01,8.66551e-02,-4.46391e-01,-5.98931e-01,-5.82632e-01,-8.54932e-01,-4.97372e-01,-4.14283e-01,-1.75612e-01,-3.34260e-01,-6.96736e-02,-1.36466e-01,1.35460e-01,1.16912e-01,2.11012e-01,7.07427e-02,2.60248e-01,2.55227e-01,2.13958e-01,9.43868e-02,-6.78557e-01,9.42407e-02,1.68834e-01,-4.80039e-02,6.54184e-01,4.73714e-02,1.05244e+00,1.10552e+00,-5.69137e-02,1.33141e-02,1.85217e-01,-2.37487e-01,-5.70001e-01,-6.33318e-01,-1.07985e+00,-1.00476e+00,-8.30031e-01,-3.56864e-01,-6.17194e-02,4.42878e-01,4.11257e-01,3.99135e-02,4.46270e-01,2.10828e-01,2.98458e-01,3.03527e-01,-1.35227e-02,-2.15754e-01,2.28161e-01,6.31547e-01,7.82530e-01,-4.93065e-02,9.10889e-01,3.35671e-01,1.10809e-01,7.36861e-01,3.28977e-01,4.76744e-01,-5.21638e-03,3.44092e-01,1.08758e-01,-2.56742e-02,-3.38998e-01,-3.25352e-02,4.90105e-02,-2.33365e-01,-1.58066e-01,2.22730e-02,1.44523e-01,5.05729e-01,1.12610e-01,1.03349e-01,3.20611e-01,5.48445e-01,3.32013e-01,5.56910e-02,4.98442e-01,-7.40104e-01,4.19314e-01,9.99495e-03,1.17398e+00,1.22686e-02,1.02991e+00,9.01276e-01,8.13267e-01,7.23871e-01,3.57015e-01,3.74878e-01,1.70082e-01,2.31093e-01,1.86526e-01,1.11865e-01,-1.87584e-02,-1.22467e-01,4.75144e-02,-2.16806e-01,-1.03775e-01,2.03797e-01,1.31528e-01,4.11524e-01,1.18777e-01,5.73968e-01,2.99303e-01,-4.26769e-01,-3.37127e-01,-4.11767e-01,3.82276e-01,-3.27304e-01,1.13884e+00,5.50434e-02,7.26003e-01,1.45819e+00,1.67464e-01,3.73185e-01,4.00788e-01,4.76440e-01,2.22610e-01,3.91620e-01,3.04758e-01,1.54750e-01,6.90174e-02,1.87504e-01,2.61281e-01,9.62716e-02,-1.22447e-01,9.04034e-02,9.94406e-02,4.58421e-01,5.58130e-02,1.31265e-01,2.82674e-01,-2.69702e-01,-2.74527e-01,-2.45481e-01,4.81592e-02,-4.19232e-01,2.29647e-01,-2.35159e-02,4.25813e-01,5.84746e-01,-1.36402e-01,2.24255e-01,3.14804e-01,2.63798e-01,4.91149e-02,1.40693e-01,1.72320e-01,2.12423e-01,2.23011e-01,1.00060e-01,2.85457e-01,-7.48481e-02,5.94577e-02,-2.03434e-01,-2.76125e-02,2.19669e-01,1.17621e-01,5.95753e-01,1.27605e+00,-9.19252e-01,-9.42610e-01,-9.67134e-02,4.12214e-02,-5.23451e-02,-2.31386e-02,2.39643e+00,9.99393e-01,2.11968e-01,4.04446e-01,1.26090e-01,3.49061e-01,3.95980e-02,3.03929e-01,4.21926e-01,4.52638e-01,7.12087e-02,2.99240e-01,2.30070e-01,2.81788e-01,5.23851e-02,8.16468e-02,1.39456e-01,-2.63142e-01,2.17340e-01,1.44158e-01,-2.12889e-01,-3.29201e-01,-1.34457e+00,-1.20176e+00,-1.85369e-01,-3.51834e-03,3.88926e-02,1.15833e-02,-5.22639e-01,1.36157e+00,9.37373e-01,3.71714e-02,4.39071e-01,2.52602e-01,-2.62233e-01,3.67720e-01,1.55306e-01,2.38983e-01,2.50539e-01,2.66335e-01,3.47613e-01,1.78841e-01,2.81838e-01,4.22528e-01,8.56651e-02,-4.69867e-01,-3.23198e-01,-5.94089e-01,-5.93039e-01,-4.84513e-01,-1.03162e+00,2.75684e-01,-8.33444e-01,-6.16083e-02,2.51600e-02,-5.03721e-02,1.42855e+00,3.67132e-01,9.88926e-01,5.35155e-01,3.09970e-01,5.36562e-01,6.99768e-01,7.63765e-01,4.63106e-01,3.70487e-01,5.18875e-01,3.02271e-01,-6.22127e-02,3.70093e-01,3.78313e-01,4.31153e-01,5.81636e-01,4.67804e-01,-5.02496e-01,-1.02443e-01,1.36310e-02,-6.56424e-01,-6.64240e-01,-7.93375e-02,1.35591e-01,7.89987e-02,3.88360e-02,5.47547e-02,3.25558e-02,1.39970e-03,3.15731e-01,4.87234e-01,4.35556e-01,1.64284e-01,3.65933e-01,5.82384e-01,3.91577e-01,9.88846e-01,6.45940e-01,5.35238e-01,4.15411e-01,7.05555e-01,7.90893e-01,8.05193e-01,1.70090e-01,-7.38645e-02,6.63996e-01,1.11213e+00,1.20851e+00,5.48549e-01,-3.53660e-03,-1.64872e-02,4.45525e-02,8.11184e-02,-1.13848e-02,-4.21067e-02,-8.32747e-02,5.89745e-02,-2.86568e-02,5.36374e-02,1.49779e+00,1.74241e+00,2.05917e+00,1.64420e+00,1.18475e+00,1.28377e+00,1.24870e+00,1.59661e+00,1.50461e+00,4.04276e-01,5.08123e-01,1.16015e+00,3.14055e-01,8.29108e-02,-3.23061e-02,1.11385e-01,-6.80466e-02,-5.36977e-02,-7.96488e-02,-9.43392e-03,-7.45509e-02,-2.89074e-02,
2.22190e-03,5.53792e-02,-5.04359e-02,7.81238e-02,1.52332e-02,8.36515e-02,6.85474e-02,8.51063e-02,-3.31036e-02,-7.86912e-02,-1.93029e-02,6.52170e-03,-2.81774e-01,-9.00172e-01,-6.93318e-01,-3.71987e-01,3.13491e-02,6.24254e-02,-7.08504e-02,1.97432e-02,-8.91807e-03,7.77275e-03,7.94723e-02,5.41976e-02,4.33146e-02,2.08093e-02,-3.79980e-03,6.63933e-02,-2.01502e-03,-8.62938e-02,7.32639e-02,-2.81912e-02,-7.41251e-02,-1.05200e-01,-5.08174e-01,-2.52251e-01,-2.08433e-01,4.32278e-01,-9.82693e-01,6.36266e-01,8.12759e-01,5.79110e-01,-2.85238e-01,-7.22350e-01,-5.55702e-01,-1.35121e-01,-8.62732e-01,-9.50256e-01,-5.77332e-01,-3.50241e-01,-9.48793e-01,-1.11521e+00,-2.80316e-02,-2.09794e-02,-8.04689e-02,-1.20792e-02,-9.80154e-03,6.77997e-02,-1.65705e-01,1.13796e+00,5.54100e-01,-1.78815e-01,3.84697e-01,4.02617e-01,4.42747e-01,-1.62747e-01,3.07852e-01,8.45719e-02,5.28060e-01,4.65331e-01,-3.32658e-01,-5.15156e-02,-2.00479e-01,-4.23209e-02,4.40703e-02,-5.54183e-01,5.29697e-02,-1.05301e-01,-6.61873e-02,-1.88101e+00,-1.29207e+00,-8.11457e-01,-8.68068e-03,-1.28678e-02,3.29749e-03,7.75087e-02,-2.03080e-01,1.13888e+00,5.69581e-01,-7.72388e-01,-7.60587e-02,1.96063e-02,2.82678e-01,1.05743e-01,9.55485e-02,4.26629e-01,5.11954e-01,-3.67771e-02,-3.87167e-01,-5.35668e-02,1.61389e-01,-5.94640e-02,1.52996e-01,2.66762e-01,1.40383e-01,1.38222e-01,3.13371e-01,3.42866e-01,-4.60903e-01,8.65809e-01,1.90987e-01,-3.70185e-02,-7.60484e-02,-1.87434e-01,-9.11947e-02,1.11091e+00,5.80413e-01,-3.73817e-02,6.64986e-01,6.44328e-01,8.94961e-03,-3.07249e-02,-1.77421e-01,1.19127e-01,-7.39153e-02,-1.62305e-01,-4.65718e-01,1.42252e-01,-1.56612e-01,4.11429e-01,-3.66453e-02,-3.67700e-01,1.85365e-01,4.02584e-02,4.04878e-02,4.56610e-01,4.97788e-01,6.58404e-01,1.25130e+00,-5.63271e-01,-8.21603e-02,-7.22110e-02,-1.98930e+00,-1.27596e-01,1.62669e-01,6.47829e-01,4.37507e-01,-3.34739e-02,1.84826e-01,1.23192e-01,7.97799e-02,8.08576e-02,9.23329e-02,2.39180e-01,1.41226e-01,-3.95378e-02,-2.15768e-02,3.07032e-01,2.00083e-01,1.12321e-01,1.36862e-01,-1.11400e-01,6.78244e-02,-1.21539e-01,4.35969e-01,7.13659e-01,-4.96476e-01,-6.40032e-01,6.66022e-02,-1.12071e+00,-1.02094e+00,-2.25922e-02,4.01608e-01,1.64137e-01,-1.11896e-01,4.67541e-02,1.65456e-01,1.69656e-01,6.76150e-02,-1.15061e-01,1.31677e-01,-2.47791e-02,6.24130e-02,1.51762e-01,1.59017e-01,1.96966e-01,1.07595e-03,3.68525e-01,1.71415e-01,1.25131e-01,-5.02436e-02,4.22943e-01,5.53850e-01,2.62361e-01,-2.88947e-01,-8.19413e-01,-1.93573e-01,-1.29507e+00,-5.20757e-01,6.55186e-01,-1.78131e-01,1.91858e-01,1.92157e-02,6.34718e-01,5.48558e-01,2.65214e-01,3.68756e-01,1.69128e-01,1.58471e-01,2.03763e-01,-2.18823e-02,2.16330e-01,3.18211e-01,-8.37672e-02,3.79939e-01,-1.54072e-01,1.22954e-01,4.44132e-01,-2.16160e-01,3.23955e-01,1.16306e+00,3.44285e-03,-6.32813e-01,-5.20357e-01,2.81500e-01,7.96822e-01,7.32912e-01,5.51720e-02,2.13710e-01,1.10283e-01,8.34088e-02,3.39699e-01,4.90900e-01,1.29862e-02,1.30042e-01,2.71786e-01,1.69541e-01,1.40543e-01,1.30613e-01,3.82200e-02,2.46341e-01,-1.13971e-01,7.98274e-02,1.41081e-02,1.48534e-01,-1.99486e-01,2.00902e-01,8.62183e-01,1.22438e+00,-6.96862e-01,-2.18368e-01,1.02672e+00,2.35524e-01,6.32494e-01,3.65301e-01,1.80493e-01,4.69134e-01,2.62783e-01,7.15066e-02,7.01480e-02,3.64697e-01,4.45426e-01,4.83187e-01,4.82936e-01,1.76698e-01,1.27259e-01,3.09250e-01,-3.89397e-02,1.38275e-01,2.36595e-01,1.39211e-01,-1.19396e-02,-8.75380e-03,1.58753e-01,2.59177e-02,5.77377e-01,9.54792e-01,7.01155e-01,-7.09002e-01,-4.02390e-01,3.00936e-01,-1.38357e-01,1.06008e-01,6.05217e-01,6.05444e-01,5.27504e-01,5.90425e-01,6.24318e-01,6.20486e-01,9.12754e-01,4.23626e-01,3.29023e-01,4.05481e-01,-3.89299e-02,-9.74402e-02,-7.70906e-02,-1.84140e-01,5.86045e-02,3.34073e-01,6.63894e-02,4.72785e-01,6.64965e-01,7.98401e-02,1.51747e-01,5.85246e-02,-5.03486e-01,-7.06206e-01,2.96773e-01,3.07297e-02,-8.83624e-01,1.16383e+00,1.09128e+00,9.79078e-01,4.06182e-01,6.58219e-01,9.25481e-01,5.26256e-01,3.27791e-01,3.19351e-01,7.00646e-01,2.17929e-01,-1.72150e-01,-2.79469e-01,-4.97904e-01,-6.53502e-02,2.17979e-01,1.99619e-01,2.04650e-01,5.00407e-01,1.36558e-01,5.21846e-01,-1.90383e-01,-1.81218e-02,-1.06205e+00,1.12286e+00,-3.20184e-01,-5.25273e-01,2.87830e-01,9.29469e-01,2.15764e-01,4.65628e-01,9.39390e-01,6.09605e-01,3.07496e-01,5.74742e-02,-3.47785e-02,1.66815e-02,-3.57789e-01,-4.14363e-01,-2.67470e-01,-2.48477e-01,-2.01244e-01,-1.48163e-01,9.53834e-02,1.63059e-01,1.71385e-01,2.85975e-01,-7.16663e-04,5.58748e-01,1.09417e+00,4.42920e-01,-2.49981e-01,8.35775e-02,2.74293e-03,1.46998e-02,7.38520e-01,5.85299e-01,-1.42906e-01,-1.08452e-01,-6.38055e-03,5.76277e-02,4.03841e-02,-1.09124e-01,-2.71853e-01,-2.75319e-01,-2.73087e-01,-4.48594e-01,-1.52498e-01,-3.73221e-01,-5.90227e-02,-2.74967e-02,-1.17794e-01,-8.45683e-02,1.64005e-01,1.88478e-02,1.72229e-01,4.49072e-01,1.51418e-01,6.85089e-01,2.88228e-01,6.37814e-01,-4.87454e-01,-3.49824e-01,-5.63654e-03,9.65442e-01,-2.46213e-02,-6.81182e-01,-3.05031e-01,-6.39560e-02,-3.38854e-01,-2.01988e-01,-2.04859e-01,2.08447e-01,-2.11527e-01,-1.87470e-01,-2.25333e-01,-2.30524e-01,-1.53655e-01,-5.95839e-02,2.50106e-02,-2.28496e-01,-2.85841e-01,-1.74810e-01,-1.98852e-01,-2.17832e-01,5.44774e-01,6.37625e-01,3.51935e-01,1.65105e-01,3.91453e-01,-4.68321e-01,-6.48506e-01,4.77497e-01,1.38190e-01,2.85784e-01,-3.89432e-01,-1.20884e-01,4.08173e-01,3.51711e-02,-9.96880e-02,4.38232e-02,-1.60039e-01,-1.94199e-02,-1.97544e-01,-2.04463e-01,-5.64590e-02,-8.12865e-02,1.64985e-01,9.61774e-02,-1.47690e-01,3.26315e-03,3.61357e-02,2.18051e-01,1.21083e-01,5.54764e-01,1.62435e-01,5.34100e-01,-1.75946e+00,-4.20038e-01,-6.77205e-01,4.38595e-01,-4.41296e-01,-1.19894e-01,3.01353e-01,3.90413e-02,2.22889e-02,3.83705e-01,1.27366e-01,4.85718e-01,-3.32822e-01,-2.51537e-02,-1.58074e-01,-9.66506e-02,8.25281e-02,-2.06351e-02,1.70721e-01,2.30426e-02,3.54894e-02,1.74334e-02,6.55489e-02,-9.77638e-02,-1.11517e-01,-6.95475e-01,-6.68407e-01,7.94729e-01,-1.18726e+00,-7.51503e-02,-9.25207e-01,3.70207e-01,-3.76982e-01,-7.04172e-01,-1.37171e-01,1.59290e-01,4.63237e-02,-7.63578e-02,1.33226e-01,1.05332e-01,2.20138e-01,1.92179e-01,-6.75406e-02,3.10171e-01,-5.67316e-02,3.82035e-01,3.23158e-01,4.83247e-02,-1.49950e-01,-6.93867e-02,-2.87274e-01,-2.85966e-02,-5.19867e-01,4.74493e-01,-2.10289e-01,5.41974e-01,-5.42734e-01,1.35718e+00,-1.02885e+00,8.86322e-01,-7.80828e-01,-2.58290e-01,3.20097e-02,5.16958e-02,4.91606e-02,-6.02058e-02,-1.85332e-01,1.10590e-01,3.30017e-01,4.73121e-02,-1.47698e-01,-1.88306e-02,4.15109e-02,6.11881e-02,-5.33873e-02,2.68333e-02,2.74668e-01,-5.38297e-02,-2.53331e-01,1.13269e-01,-6.18781e-01,-3.62936e-01,-3.65316e-01,6.91278e-01,-1.04895e+00,-6.70005e-01,1.19463e+00,2.22534e-02,-1.67605e+00,7.00665e-03,-2.16120e-01,1.02300e-01,-8.54150e-02,-9.55154e-02,-1.88054e-01,4.65860e-02,-9.95796e-02,-6.36569e-02,-1.14408e-01,3.62512e-02,1.12719e-01,-6.30108e-02,4.40507e-02,-2.24562e-01,9.64840e-02,-1.42986e-01,-1.69472e-01,-2.29355e-01,-3.52647e-01,-4.44458e-01,2.91465e-01,-1.67112e+00,-6.47610e-01,5.38098e-02,5.33362e-01,-2.19718e-01,-1.16643e+00,7.19106e-02,3.95469e-01,-3.52615e-02,-2.51486e-01,3.83327e-03,-3.59972e-02,-2.13986e-01,-5.39385e-01,-4.76106e-02,-8.25955e-02,-1.30485e-01,-1.66946e-01,6.01872e-02,1.10908e-01,-3.21544e-01,3.43750e-02,-1.63538e-01,-2.55834e-01,-1.27485e-01,-1.05018e-01,2.59262e-01,6.06267e-01,-2.30852e+00,-2.09312e-01,-8.93904e-01,-9.87791e-01,-6.84885e-01,-6.36323e-01,4.89315e-01,1.80751e-01,1.47045e-01,1.48635e-01,-7.29432e-02,1.27087e-01,-1.21222e-01,4.76559e-02,5.08727e-02,2.67307e-02,-1.39556e-01,-9.37859e-02,-1.32808e-01,-2.97645e-01,-2.06228e-01,-2.22785e-01,-1.92022e-01,-2.61756e-02,7.12520e-02,5.51545e-02,9.72192e-01,1.27559e-01,1.94355e-03,2.02910e-01,-8.97201e-01,-5.23438e-01,-1.98998e+00,-1.22657e+00,1.64249e-01,-3.66179e-01,-6.76538e-03,3.95071e-02,2.08300e-01,9.15960e-02,-1.11176e-02,2.30886e-01,1.90611e-01,1.61746e-02,-6.42581e-02,-1.31467e-01,-3.53463e-01,-3.65254e-01,4.51476e-02,-8.12735e-02,-3.56779e-01,2.02139e-01,-7.99152e-02,2.23659e-01,7.54900e-01,8.06661e-02,-2.48083e-01,2.21561e-01,7.24045e-02,-1.00253e-02,-2.06484e+00,-1.80763e-01,4.59570e-01,-4.04513e-01,-3.52643e-01,-2.21193e-02,3.02418e-03,-5.32563e-02,1.50478e-01,1.24050e-01,1.45494e-01,2.07958e-01,5.48925e-01,3.68446e-02,-1.13884e-01,1.38954e-01,-2.65375e-01,-2.34019e-01,1.91567e-02,-8.23972e-02,6.88903e-02,1.02618e-01,1.50193e-01,-8.28955e-02,-9.84089e-01,7.63794e-02,-7.13205e-02,8.54070e-03,1.17128e-01,3.84596e-01,-3.81254e-03,5.38986e-02,-1.66332e-01,8.16525e-02,3.44576e-01,-3.66388e-01,-8.61476e-02,-2.96285e-02,1.21570e-01,2.91658e-01,-1.84258e-01,8.56652e-02,1.19127e-01,4.95637e-02,7.40501e-01,2.45134e-01,9.70407e-02,-3.39526e-01,-6.06286e-02,-2.30383e-01,-4.88392e-01,-1.46354e+00,-4.62926e-01,3.75288e-02,-2.43600e-03,-1.95211e-02,-1.09735e+00,7.80412e-01,2.20838e-01,3.64989e-01,4.03986e-01,5.76157e-01,3.48094e-01,5.00702e-01,3.20709e-01,6.48371e-01,3.72377e-01,2.09858e-01,2.74067e-01,8.38485e-01,7.74951e-01,7.88535e-01,6.03506e-01,5.77812e-01,7.77520e-02,-4.77458e-02,3.97503e-01,-6.91389e-01,5.98734e-02,-9.05691e-01,-3.71558e-01,-7.11751e-02,3.54645e-02,-7.61539e-04,-5.59883e-02,1.00255e+00,-6.54676e-01,4.45568e-01,5.69579e-01,9.48751e-01,1.08966e+00,9.46512e-01,4.45063e-01,5.41104e-01,5.99002e-01,6.81883e-01,5.05970e-01,3.49885e-01,4.55385e-01,3.88216e-01,9.82471e-01,9.62849e-01,3.65548e-01,5.34177e-03,2.30430e-01,1.98726e+00,3.05906e-01,3.45549e-01,-8.40482e-02,-1.05233e-02,2.43165e-02,-4.24728e-03,5.33864e-02,-7.39027e-02,6.15485e-01,1.19710e+00,3.44989e-01,5.24484e-01,6.19492e-01,-1.01039e-01,5.20664e-01,-2.72283e-01,-8.10324e-02,1.36113e+00,9.37401e-01,-4.21216e-01,-4.18484e-01,6.20554e-01,2.69734e-01,6.78976e-01,-2.18632e-01,1.81891e-01,5.65639e-01,6.96377e-01,3.43960e-02,-3.26925e-02,7.54236e-02,-5.68887e-02,
4.32105e-02,-4.14636e-02,3.04888e-02,4.70402e-02,1.98117e-02,-6.16737e-02,2.70107e-02,2.56943e-02,6.16290e-02,4.15800e-02,-2.76926e-02,-5.27652e-02,4.53407e-01,1.21043e-01,-2.92969e-01,-2.44425e-01,6.87613e-02,1.04504e-02,-1.03115e-02,-3.24417e-02,-2.93514e-02,4.50952e-02,-5.45905e-02,-6.63694e-02,-2.14132e-03,-7.81858e-03,7.48792e-02,7.71558e-02,6.61198e-02,4.18464e-02,-2.80803e-02,4.67319e-02,4.44213e-01,8.12877e-01,1.21611e+00,1.13099e+00,1.26772e+00,1.30389e+00,7.90413e-01,2.17640e-01,6.99932e-01,6.71774e-01,-5.29496e-01,-1.69093e-01,-2.46696e-01,4.16460e-01,1.28981e+00,1.69910e+00,1.11512e+00,1.27236e+00,1.47916e+00,1.24892e+00,-2.47575e-02,3.50660e-02,4.84195e-02,8.20177e-02,-2.55426e-02,-4.95220e-02,2.68796e-01,-9.87188e-02,9.62851e-01,1.46160e+00,1.28122e+00,1.16249e+00,1.41015e+00,6.49268e-01,5.19030e-01,3.03959e-01,5.50415e-01,-9.55525e-02,7.18961e-01,4.40586e-01,5.96954e-01,4.51089e-01,-5.17191e-01,-1.51248e-01,-3.28204e-01,2.00799e-02,4.46165e-01,8.71985e-01,-8.03859e-03,-2.00637e-01,5.03025e-02,8.31374e-02,7.99334e-02,-5.11744e-03,-1.01336e-01,3.41419e-01,5.45674e-01,-2.46644e-01,5.80878e-01,-1.06478e-01,3.03527e-01,6.03238e-01,2.12645e-01,2.39474e-01,3.53087e-01,6.43652e-01,4.27945e-01,1.98306e-01,-2.12906e-01,-3.77335e-01,-8.05384e-01,-6.56656e-01,-3.94450e-01,4.34274e-01,4.64610e-01,5.01376e-01,1.96947e-01,1.00216e+00,6.57463e-01,4.65581e-02,-3.41124e-02,-6.96429e-02,4.99328e-01,1.36230e-01,5.24372e-02,-6.53053e-01,-1.43349e-01,8.39427e-01,-9.04984e-02,2.72468e-01,-8.43968e-02,3.85187e-02,-7.15736e-02,6.24110e-02,-1.13643e-01,6.12700e-01,9.25524e-02,-2.18267e-01,-6.53848e-02,-2.48964e-01,9.13413e-02,-2.17079e-01,-3.56741e-01,1.90032e-01,9.13689e-01,6.89117e-01,2.73960e-01,5.55203e-02,-6.53872e-02,-7.55153e-02,-5.06417e-01,-1.42734e+00,-7.84052e-01,-1.04621e+00,-5.42278e-02,2.02307e-01,5.78595e-02,1.51599e-01,1.52387e-01,2.56589e-01,1.92010e-01,-1.58321e-01,-1.42072e-01,-3.18268e-01,7.45721e-02,1.09604e-01,-1.13906e-01,-4.21338e-03,-1.03034e-01,2.41435e-01,-2.82043e-01,-4.83187e-01,2.26122e-01,9.43677e-01,9.01988e-01,-3.13170e-01,3.58767e-02,1.96292e-02,1.03489e+00,-6.43867e-01,-6.63183e-02,-8.03751e-02,-9.49829e-02,5.91582e-01,-2.60987e-01,2.74226e-01,-7.23944e-02,-9.81658e-02,6.79767e-02,-9.85083e-02,-8.41741e-02,-1.14614e-01,-3.51077e-01,-2.31597e-01,-3.16433e-01,2.60024e-01,-2.47359e-01,-3.39099e-01,3.25489e-01,3.27052e-01,2.49488e-01,8.91099e-01,9.94380e-01,2.21914e-01,5.24167e-02,-1.21674e-01,7.62117e-01,-8.34304e-01,-5.83773e-01,4.08610e-01,-4.45635e-02,3.73206e-02,5.66467e-01,4.23055e-02,2.85023e-02,-5.95526e-03,-9.02669e-02,2.82292e-02,-2.53410e-01,-1.46721e-01,-2.28518e-01,-1.84920e-01,-2.82641e-01,-6.08807e-02,-1.39573e-01,1.68981e-01,2.08149e-01,5.71604e-01,1.32552e+00,7.66181e-01,8.00668e-01,8.12760e-01,1.82185e-02,-2.43521e-01,3.18264e-01,-7.48771e-01,-8.16054e-01,-3.36647e-01,2.32225e-01,9.68377e-02,3.07257e-01,3.84433e-01,-1.93057e-02,-3.14672e-01,-2.13798e-01,-3.33635e-01,4.58352e-03,-1.60389e-01,-1.16501e-01,1.86539e-02,-4.45506e-02,-1.48093e-01,1.36221e-01,2.12094e-01,2.54402e-01,4.50044e-01,1.59486e+00,1.52309e+00,6.29243e-01,1.00098e+00,-8.24452e-02,-8.80206e-01,5.32790e-01,-4.84907e-01,-6.66074e-01,-5.09991e-01,1.78672e-01,1.45927e-01,2.74007e-01,3.72765e-01,3.09185e-01,2.28167e-01,-4.10236e-01,-7.18274e-01,-2.48124e-01,-2.81979e-01,2.84732e-01,-1.54289e-02,2.35271e-02,-1.32023e-01,2.41535e-01,3.83623e-01,3.63412e-01,4.08938e-01,1.19589e+00,1.49610e+00,7.62012e-01,-1.06723e+00,-4.83069e-02,-8.72335e-01,-1.18166e+00,-3.23759e-01,3.31270e-01,-8.73270e-02,-2.60748e-02,3.66169e-01,5.07294e-01,4.75651e-01,5.34279e-01,2.17555e-01,-6.64730e-02,-7.55786e-01,-9.49002e-01,1.24418e-01,-9.21924e-02,2.98098e-02,1.28972e-01,-3.66051e-02,-4.57463e-02,2.33847e-01,1.40541e-01,3.08148e-01,1.29169e+00,1.96884e+00,1.35496e+00,-1.39043e+00,-2.17256e-01,-1.97405e-01,-1.23393e+00,-3.17577e-01,-1.59103e-01,3.34678e-01,4.32814e-01,2.39774e-01,6.01297e-01,5.62649e-01,2.92038e-01,3.65077e-01,5.27430e-01,-6.52652e-01,-4.33727e-01,-9.47575e-02,-9.37050e-02,-3.03185e-01,-2.86614e-01,-1.84731e-01,-2.37549e-01,-3.82431e-01,-2.58472e-01,5.77788e-03,4.48462e-01,1.65571e+00,5.53242e-01,-7.65893e-01,-2.90474e-01,-4.06711e-01,-3.77371e-01,-1.37741e-01,-1.55191e-01,-3.74015e-02,3.61344e-01,2.04518e-01,1.07599e-01,8.69941e-02,3.52049e-01,5.02530e-01,7.13609e-01,-2.46094e-02,-4.87296e-01,8.45986e-02,-1.55382e-01,-2.06642e-01,-2.66993e-01,-2.43742e-01,-1.05996e-01,-4.94385e-02,-3.87656e-01,-4.18818e-01,-1.45965e-01,-8.36680e-01,-5.48594e-01,-1.10396e+00,-3.27081e-05,-4.90013e-01,-5.04235e-02,-4.26952e-01,-2.08600e-01,2.04193e-01,4.84891e-01,7.18022e-02,1.20654e-01,2.63970e-01,4.49764e-01,1.69999e-01,4.03793e-01,-1.71914e-01,-1.77259e-01,2.83292e-01,-5.64207e-02,5.20369e-02,-4.50111e-02,3.04006e-02,-3.29557e-02,3.77100e-01,1.86674e-01,-7.34568e-02,-4.63277e-01,-9.53596e-01,-6.73299e-01,-8.74322e-01,1.03719e+00,-7.77805e-02,-8.55063e-01,-6.33474e-02,-2.36730e-01,5.53721e-01,-4.94916e-02,6.96229e-03,8.07970e-02,-5.44480e-02,-5.44651e-02,6.32257e-01,6.59772e-02,1.15115e-01,1.82314e-01,-5.78367e-02,-5.41144e-02,1.05589e-01,1.75353e-01,-1.54703e-01,-2.09011e-01,-5.01540e-02,-3.03048e-01,-9.49676e-02,5.40895e-01,-7.45618e-01,-1.28301e+00,-1.11698e+00,7.41387e-01,9.06166e-03,-6.84588e-01,4.25692e-01,-7.64479e-01,-8.47992e-01,-3.94050e-01,1.51684e-01,3.35617e-01,1.09655e-01,2.58529e-01,2.60550e-01,4.43122e-01,2.23514e-01,1.50729e-01,-2.72676e-01,1.55600e-01,-6.05841e-02,-3.72907e-02,-2.04146e-01,1.34882e-01,-2.35940e-01,-1.10715e-01,1.57026e-01,1.66496e-01,4.54197e-01,-9.36199e-01,-5.34403e-01,-6.47221e-01,2.88284e-02,-1.20904e+00,-4.85847e-02,-1.39941e+00,-4.27778e-01,9.21156e-02,-2.70232e-01,2.25312e-01,-4.34216e-02,2.23033e-02,4.40855e-02,2.75627e-01,1.14667e-01,2.25814e-02,-3.06900e-02,1.88391e-01,-9.42506e-02,-2.51789e-01,-7.05611e-02,-2.21424e-01,-4.44880e-01,-7.56822e-02,-3.99907e-02,-4.19186e-02,7.63532e-01,-6.66666e-01,-1.22594e+00,-6.92379e-02,7.42750e-02,-1.06110e+00,-6.29394e-01,-6.01355e-01,7.02237e-01,-1.29137e-01,-1.74049e-01,-5.26423e-02,2.30527e-01,-8.82535e-03,1.05373e-01,1.87280e-01,3.81026e-02,-3.43874e-02,-1.27233e-01,-1.92345e-02,-3.99153e-02,-3.75717e-01,-4.18721e-01,-4.28165e-01,-1.97856e-01,1.26569e-01,9.28807e-02,-2.26382e-01,-1.20584e-01,-9.41953e-01,-1.46960e+00,-1.78295e-01,-6.24654e-02,-1.27433e+00,5.12055e-01,8.81998e-02,6.52631e-01,3.46529e-01,-8.01753e-02,-2.18260e-01,1.91879e-01,-1.20026e-01,-1.42425e-01,5.36880e-01,2.91198e-01,-1.51156e-01,-1.30771e-02,-1.18447e-01,-2.13463e-01,-4.58391e-01,-2.03867e-01,-2.04754e-01,-4.58853e-01,-7.73786e-01,1.95554e-01,2.02455e-01,-1.39338e-03,-7.16597e-01,-1.65313e+00,-2.06840e-01,-5.37869e-01,-1.28923e+00,7.30629e-01,-7.15145e-01,-4.43906e-02,-1.88303e-01,-1.65640e-01,1.37302e-01,-7.09314e-02,1.91632e-01,1.83707e-01,1.61642e-01,-7.14767e-03,2.94175e-01,1.05571e-01,3.52981e-02,-1.85029e-01,-1.69443e-01,-1.36560e-01,-1.15815e-01,1.12098e-01,-9.05880e-02,5.04735e-01,2.54436e-01,-1.50290e-01,-5.92484e-01,-1.16044e+00,-3.71339e-02,-2.39724e-01,-9.75561e-01,-5.12712e-01,-1.08646e+00,-8.56737e-02,-5.88985e-01,-1.94176e-01,-2.02158e-01,2.87116e-02,7.76846e-02,6.22651e-02,1.12104e-01,-4.24530e-02,-1.84274e-01,1.58922e-01,1.87927e-01,-6.46999e-02,2.40791e-01,-1.19769e-01,-2.80215e-02,1.30778e-01,3.73890e-01,-2.68631e-01,9.41787e-04,7.23364e-02,-5.21948e-01,-1.00905e-01,-5.20468e-02,6.74446e-02,-4.12157e-01,-1.48490e-01,-4.51779e-01,-5.65557e-02,-9.80276e-02,-1.54869e-01,-5.01779e-02,-3.87337e-02,-2.24036e-01,-6.53483e-02,1.47967e-01,1.47072e-01,-3.14402e-02,2.69965e-01,-6.22888e-02,1.35943e-01,5.12771e-02,-2.69176e-02,-2.20230e-01,-2.01659e-02,3.41751e-01,6.24936e-01,1.91365e-01,-7.61619e-01,1.15224e+00,2.44465e-01,-5.26247e-02,8.76582e-02,-3.05835e-01,7.38488e-02,-3.66854e-02,-2.67407e-01,1.58569e-01,1.57964e-01,-2.28618e-01,-1.25466e-01,1.55083e-01,-8.01171e-02,-1.66974e-01,8.83595e-03,-1.68669e-01,1.51819e-01,1.95040e-01,1.68037e-01,2.20620e-01,1.75952e-01,1.25534e-01,4.18323e-01,-3.11438e-03,-1.98813e-01,1.05034e-01,-8.25855e-01,1.11323e+00,3.73775e-01,6.89052e-02,2.31750e-02,8.77415e-01,1.00944e+00,6.13115e-01,-9.24338e-01,-2.24860e-01,-2.09376e-01,3.99535e-01,-2.44957e-01,4.56192e-02,-6.57153e-03,2.08911e-01,2.50835e-01,3.24039e-01,-8.91622e-03,1.30008e-01,5.58033e-02,3.92812e-01,1.52188e-01,2.73954e-01,2.17691e-01,4.02054e-01,5.69235e-01,1.20954e-01,1.73229e-01,9.68318e-01,-5.99645e-02,1.40559e-02,3.94794e-02,-3.37156e-01,9.49281e-01,-4.46641e-01,9.11176e-02,-2.67577e-01,-5.00193e-01,-6.48326e-01,-1.59152e-01,8.84039e-02,4.84527e-01,1.50302e-01,6.36570e-02,1.89126e-01,1.61735e-01,3.81479e-01,-7.72579e-02,5.08078e-01,8.73591e-01,3.77246e-01,8.76856e-02,4.46550e-01,7.16330e-01,-6.59332e-01,-7.84070e-01,3.87072e-01,1.37267e-02,2.08779e-02,-4.26528e-02,-3.49581e-02,9.54511e-01,4.42667e-01,-1.50787e+00,4.31353e-01,1.34807e-01,-2.01783e-01,-2.38247e-01,2.70585e-01,-7.52452e-02,-4.55092e-01,7.70321e-02,-9.70299e-02,4.22801e-01,-1.33695e-01,9.81595e-02,3.38693e-01,-3.48557e-01,-3.20662e-01,-3.40045e-01,-2.12380e-01,-4.30293e-02,-2.31669e-01,-1.00586e-01,5.87586e-01,4.38765e-02,-7.64646e-02,-4.15208e-02,5.99013e-02,-2.70511e-02,4.03317e-01,-1.32734e+00,-4.89726e-01,-3.46565e-01,4.22127e-01,-5.45531e-01,-5.17362e-01,-3.29362e-01,-1.76781e-01,-6.90761e-01,-8.98062e-01,-5.84374e-01,-3.93000e-01,-2.57404e-01,-3.14584e-01,-1.09262e+00,-1.68136e+00,-1.07148e+00,-1.10296e+00,-5.80615e-01,-5.40481e-01,8.06007e-02,3.64654e-02,-2.37670e-02,8.45493e-02,-8.40571e-03,3.33984e-02,-6.47823e-02,-1.39624e-01,-1.80244e-01,-1.16976e+00,-1.41873e+00,-1.94271e+00,-4.96891e-01,-8.67760e-01,-6.16663e-01,-1.65602e-01,-1.41134e+00,-1.68202e+00,2.85574e-01,3.81519e-01,-1.00613e+00,-3.24919e-01,-2.39575e-01,-1.26919e+00,-1.05107e+00,-1.15634e+00,-6.83320e-03,-1.37109e-02,7.82671e-02,2.34066e-02,-3.86716e-03,
